/* Generated by Edge Impulse
 *
 * Permission is hereby granted, free of charge, to any person obtaining a copy
 * of this software and associated documentation files (the "Software"), to deal
 * in the Software without restriction, including without limitation the rights
 * to use, copy, modify, merge, publish, distribute, sublicense, and/or sell
 * copies of the Software, and to permit persons to whom the Software is
 * furnished to do so, subject to the following conditions:
 *
 * The above copyright notice and this permission notice shall be included in
 * all copies or substantial portions of the Software.
 *
 * THE SOFTWARE IS PROVIDED "AS IS", WITHOUT WARRANTY OF ANY KIND, EXPRESS OR
 * IMPLIED, INCLUDING BUT NOT LIMITED TO THE WARRANTIES OF MERCHANTABILITY,
 * FITNESS FOR A PARTICULAR PURPOSE AND NONINFRINGEMENT. IN NO EVENT SHALL THE
 * AUTHORS OR COPYRIGHT HOLDERS BE LIABLE FOR ANY CLAIM, DAMAGES OR OTHER
 * LIABILITY, WHETHER IN AN ACTION OF CONTRACT, TORT OR OTHERWISE, ARISING FROM,
 * OUT OF OR IN CONNECTION WITH THE SOFTWARE OR THE USE OR OTHER DEALINGS IN THE
 * SOFTWARE.
 */
// Generated on: 27.03.2024 19:11:39

#include <stdio.h>
#include <stdlib.h>
#include "edge-impulse-sdk/tensorflow/lite/c/builtin_op_data.h"
#include "edge-impulse-sdk/tensorflow/lite/c/common.h"
#include "edge-impulse-sdk/tensorflow/lite/micro/micro_mutable_op_resolver.h"
#include "edge-impulse-sdk/porting/ei_classifier_porting.h"

#if EI_CLASSIFIER_PRINT_STATE
#if defined(__cplusplus) && EI_C_LINKAGE == 1
extern "C" {
    extern void ei_printf(const char *format, ...);
}
#else
extern void ei_printf(const char *format, ...);
#endif
#endif

#if defined __GNUC__
#define ALIGN(X) __attribute__((aligned(X)))
#elif defined _MSC_VER
#define ALIGN(X) __declspec(align(X))
#elif defined __TASKING__
#define ALIGN(X) __align(X)
#elif defined __ICCARM__
#define ALIGN(x) __attribute__((aligned(x)))
#endif

#ifndef EI_MAX_SCRATCH_BUFFER_COUNT
#ifndef CONFIG_IDF_TARGET_ESP32S3
#define EI_MAX_SCRATCH_BUFFER_COUNT 14
#else
#define EI_MAX_SCRATCH_BUFFER_COUNT 28
#endif // CONFIG_IDF_TARGET_ESP32S3
#endif // EI_MAX_SCRATCH_BUFFER_COUNT

#ifndef EI_MAX_OVERFLOW_BUFFER_COUNT
#define EI_MAX_OVERFLOW_BUFFER_COUNT 10
#endif // EI_MAX_OVERFLOW_BUFFER_COUNT

using namespace tflite;
using namespace tflite::ops;
using namespace tflite::ops::micro;

namespace {

#if defined(EI_CLASSIFIER_ALLOCATION_STATIC_HIMAX) || defined(EI_CLASSIFIER_ALLOCATION_STATIC_HIMAX_GNU)
constexpr int kTensorArenaSize = 70336;
#else
constexpr int kTensorArenaSize = 69312;
#endif

#if defined(EI_CLASSIFIER_ALLOCATION_STATIC)
uint8_t tensor_arena[kTensorArenaSize] ALIGN(16);
#elif defined(EI_CLASSIFIER_ALLOCATION_STATIC_HIMAX)
#pragma Bss(".tensor_arena")
uint8_t tensor_arena[kTensorArenaSize] ALIGN(16);
#pragma Bss()
#elif defined(EI_CLASSIFIER_ALLOCATION_STATIC_HIMAX_GNU)
uint8_t tensor_arena[kTensorArenaSize] ALIGN(16) __attribute__((section(".tensor_arena")));
#else
#define EI_CLASSIFIER_ALLOCATION_HEAP 1
uint8_t* tensor_arena = NULL;
#endif

static uint8_t* tensor_boundary;
static uint8_t* current_location;

template <int SZ, class T> struct TfArray {
  int sz; T elem[SZ];
};

enum used_operators_e {
  OP_CONV_2D, OP_DEPTHWISE_CONV_2D, OP_ADD, OP_PAD, OP_SOFTMAX,  OP_LAST
};

struct TensorInfo_t { // subset of TfLiteTensor used for initialization from constant memory
  TfLiteAllocationType allocation_type;
  TfLiteType type;
  void* data;
  TfLiteIntArray* dims;
  size_t bytes;
  TfLiteQuantization quantization;
};

typedef struct {
  TfLiteTensor tensor;
  int16_t index;
} TfLiteTensorWithIndex;

typedef struct {
  TfLiteEvalTensor tensor;
  int16_t index;
} TfLiteEvalTensorWithIndex;

TfLiteContext ctx{};
static const int MAX_TFL_TENSOR_COUNT = 4;
static TfLiteTensorWithIndex tflTensors[MAX_TFL_TENSOR_COUNT];
static const int MAX_TFL_EVAL_COUNT = 4;
static TfLiteEvalTensorWithIndex tflEvalTensors[MAX_TFL_EVAL_COUNT];
TfLiteRegistration registrations[OP_LAST];

namespace g0 {
const TfArray<4, int> tensor_dimension0 = { 4, { 1,48,48,1 } };
const TfArray<1, float> quant0_scale = { 1, { 0.003101591719314456, } };
const TfArray<1, int> quant0_zero = { 1, { -128 } };
const TfLiteAffineQuantization quant0 = { (TfLiteFloatArray*)&quant0_scale, (TfLiteIntArray*)&quant0_zero, 0 };
const ALIGN(16) int32_t tensor_data1[4*2] = { 
  0, 0, 
  0, 1, 
  0, 1, 
  0, 0, 
};
const TfArray<2, int> tensor_dimension1 = { 2, { 4,2 } };
const ALIGN(8) int32_t tensor_data2[2] = { 46961, -50161, };
const TfArray<1, int> tensor_dimension2 = { 1, { 2 } };
const TfArray<2, float> quant2_scale = { 2, { 7.3842908022925258e-05, 6.9273868575692177e-05, } };
const TfArray<2, int> quant2_zero = { 2, { 0,0 } };
const TfLiteAffineQuantization quant2 = { (TfLiteFloatArray*)&quant2_scale, (TfLiteIntArray*)&quant2_zero, 0 };
const ALIGN(16) int8_t tensor_data3[2*1*1*32] = { 
  /* [0][0][][] */ 77,-38,-47,105,-79,8,-61,67,127,-22,-41,-21,-13,75,-56,28,108,-82,-28,-100,91,74,79,-62,-50,-70,-42,87,15,-83,-18,58, 
  /* [1][0][][] */ 55,88,85,-66,-80,87,-6,21,-41,-25,48,122,127,52,49,3,-40,7,-76,-96,-81,47,40,125,97,85,-51,-20,112,-115,-116,-16, 
};
const TfArray<4, int> tensor_dimension3 = { 4, { 2,1,1,32 } };
const TfArray<2, float> quant3_scale = { 2, { 0.0035291858948767185, 0.0033108170609921217, } };
const TfArray<2, int> quant3_zero = { 2, { 0,0 } };
const TfLiteAffineQuantization quant3 = { (TfLiteFloatArray*)&quant3_scale, (TfLiteIntArray*)&quant3_zero, 0 };
const ALIGN(16) int32_t tensor_data4[32] = { -351, 718, 737, -663, -519, 788, -610, 729, -569, 193, 756, 716, 717, 722, 727, -650, -769, 505, 346, -497, -728, 857, 690, 859, 745, 685, -451, 717, 25, -333, -38, -617, };
const TfArray<1, int> tensor_dimension4 = { 1, { 32 } };
const TfArray<32, float> quant4_scale = { 32, { 3.1898693123366684e-05, 3.5289918741909787e-05, 3.4301167033845559e-05, 3.3090782380895689e-05, 3.2847205147845671e-05, 3.2267540518660098e-05, 3.4278491511940956e-05, 3.5576013033278286e-05, 3.3596297726035118e-05, 3.5437136830296367e-05, 3.5508081055013463e-05, 3.5298235161462799e-05, 3.4578148188302293e-05, 3.4982109355041757e-05, 3.5530403692973778e-05, 3.261126039433293e-05, 3.2238425774266943e-05, 3.414206366869621e-05, 3.2402615033788607e-05, 3.2663752790540457e-05, 3.1241193937603384e-05, 3.2966170692816377e-05, 3.4260920074302703e-05, 3.078515874221921e-05, 3.5072782338829711e-05, 3.5351069527678192e-05, 3.3639204048085958e-05, 3.3148604416055605e-05, 3.5525867133401334e-05, 3.2093583286041394e-05, 3.1549720006296411e-05, 3.462150925770402e-05, } };
const TfArray<32, int> quant4_zero = { 32, { 0,0,0,0,0,0,0,0,0,0,0,0,0,0,0,0,0,0,0,0,0,0,0,0,0,0,0,0,0,0,0,0 } };
const TfLiteAffineQuantization quant4 = { (TfLiteFloatArray*)&quant4_scale, (TfLiteIntArray*)&quant4_zero, 0 };
const ALIGN(16) int8_t tensor_data5[32*1*1*48] = { 
  /* [0][0][][] */ -41,-59,112,9,98,-16,-97,-115,66,-109,-121,-7,54,6,-46,52,-62,-41,-73,-63,-79,-120,-2,114,-126,3,77,-53,114,-4,-30,-96,84,-69,-108,69,-127,-93,-106,24,75,-98,-107,103,53,-121,113,-27, 
  /* [1][0][][] */ -47,37,-59,8,-27,90,49,18,93,-91,-92,112,77,-17,35,76,98,-31,46,127,-36,5,45,37,38,26,-36,118,22,17,107,-54,64,114,1,39,61,72,-3,-54,-50,18,-12,-90,-24,45,-32,-51, 
  /* [2][0][][] */ 56,41,-50,105,-10,-49,101,105,-87,97,-24,125,104,-6,95,-101,-65,-18,46,66,-87,-5,122,32,-22,90,109,22,-58,93,89,106,-66,-9,-84,-97,-77,108,118,-18,-106,-66,24,0,-75,127,-28,-75, 
  /* [3][0][][] */ 71,3,34,-30,-74,47,-124,34,50,19,66,-2,89,98,71,7,121,96,-65,8,113,-100,-76,-127,-21,-117,-86,110,40,-112,90,1,-58,-43,-25,-23,-103,-31,36,54,-28,-97,-109,19,76,24,-45,-94, 
  /* [4][0][][] */ 50,105,-7,50,-34,-32,25,11,57,88,-16,51,23,-44,-18,-76,-15,-10,-73,9,106,-101,85,22,-11,-4,64,-70,-58,29,-76,-61,69,113,10,-114,-57,-15,-127,44,-59,-71,-83,-97,29,105,36,56, 
  /* [5][0][][] */ 114,-91,95,100,55,-112,41,69,127,-114,10,-63,38,116,50,51,60,74,-67,116,45,66,28,-18,-106,-56,-13,-85,64,45,28,-96,-36,14,-64,30,-112,-27,61,35,-83,-44,54,110,-26,34,38,-51, 
  /* [6][0][][] */ 13,-50,108,71,-92,-71,-9,61,-22,-88,0,-94,79,51,110,-126,42,-2,-6,97,-85,-126,105,53,-60,-90,-12,-65,-35,-121,42,-84,-94,-127,-51,-112,-15,33,-114,76,80,50,18,-19,-119,102,-89,-49, 
  /* [7][0][][] */ 125,71,-25,-31,-58,123,-8,9,127,15,-84,24,67,-76,57,84,52,26,9,122,64,45,5,95,-65,110,47,67,-64,117,-9,46,30,35,76,110,-92,97,1,-17,104,-64,94,73,60,6,103,-103, 
  /* [8][0][][] */ 5,37,-54,-101,56,19,-87,-32,-1,38,62,99,-9,-50,-96,-82,-63,90,-74,9,21,-33,77,104,-106,111,43,93,-80,9,-84,112,93,-42,39,-13,117,-3,-30,78,87,96,-123,-127,5,-32,-7,111, 
  /* [9][0][][] */ 2,21,112,46,92,-106,-48,-99,39,49,-10,69,-12,-74,-98,-20,21,15,-96,-65,9,105,-100,-100,127,7,5,27,-8,-57,-76,110,77,1,43,-20,-65,15,-29,-29,56,-51,53,-75,79,29,-87,69, 
  /* [10][0][][] */ -51,84,102,-54,-4,114,117,37,51,40,35,-58,110,90,-22,23,-43,88,-86,-50,-7,39,66,-57,35,62,-109,-98,-36,90,-82,-69,89,109,127,83,-29,18,-22,44,-23,125,-99,-32,-84,-48,-4,-54, 
  /* [11][0][][] */ 119,16,-3,113,127,56,64,39,122,101,-65,118,6,-73,39,-53,-63,-92,73,50,42,84,33,-97,-100,-84,-15,81,89,5,35,-9,-82,-60,62,56,-52,86,-18,-48,-14,114,-63,10,-30,-50,-90,-84, 
  /* [12][0][][] */ 23,63,-44,11,98,19,-24,45,-65,65,-14,21,-32,21,60,-68,-104,-22,-39,-70,38,0,27,109,-67,-44,106,-93,105,25,-33,127,-82,-59,-35,27,6,-65,-8,51,125,51,-101,-34,-28,-74,-56,119, 
  /* [13][0][][] */ 120,-55,113,107,105,125,92,73,85,-92,23,-19,103,81,78,-35,-120,-60,-59,40,79,-16,127,-36,-61,49,11,31,-75,-76,92,48,45,115,-10,48,-73,-17,36,79,-51,88,-42,18,-32,37,-3,-25, 
  /* [14][0][][] */ -46,-88,98,80,89,-16,-3,-104,-64,-25,79,88,-19,-69,-76,-72,-66,-52,24,36,-32,44,8,71,-105,-62,-36,42,-99,-104,-67,48,102,-10,-25,17,105,127,43,-100,7,-97,45,93,75,-101,65,-84, 
  /* [15][0][][] */ 12,-32,-38,71,90,-100,56,-109,53,-9,-85,5,104,-4,-104,-127,105,6,-107,18,43,13,71,109,85,65,42,89,14,50,63,-114,4,0,-73,-12,-78,110,108,-79,8,111,-58,-29,19,-88,-44,-85, 
  /* [16][0][][] */ -83,-2,100,-75,34,110,-70,35,40,43,-127,70,-27,-61,-67,-76,126,77,66,60,108,75,-50,46,-39,51,-75,56,-119,3,35,4,-115,72,52,52,-47,46,-64,-83,12,-61,68,93,58,103,113,-15, 
  /* [17][0][][] */ 43,-119,41,93,-35,-105,-56,-93,55,-81,97,46,111,71,-107,61,19,48,114,126,-85,-5,21,-43,31,78,-94,39,119,-44,-30,87,-45,-13,39,16,-42,113,-82,-22,-87,-31,-7,-20,15,10,84,-127, 
  /* [18][0][][] */ -98,119,118,-70,2,-118,-108,17,-2,84,-112,-35,-30,45,69,-47,41,-12,65,-21,113,-39,31,-83,40,-87,0,127,39,44,13,53,66,-26,-98,-112,-22,38,-27,85,-31,6,-51,9,-115,34,45,10, 
  /* [19][0][][] */ 17,28,76,37,57,-92,98,93,94,-69,28,-15,-104,32,-62,60,98,-112,111,58,-26,81,-61,10,92,-87,31,-74,-100,-127,-70,45,85,-90,32,-5,6,-77,-60,-109,43,-126,-90,8,-92,30,93,-98, 
  /* [20][0][][] */ -18,72,68,96,-104,93,12,59,7,6,-104,-3,-17,89,36,-89,-49,-46,-81,-43,17,-57,-91,-86,84,-89,-115,42,16,4,-52,118,110,40,-23,53,38,-45,-27,-127,-102,-46,-105,-116,-38,-77,-76,114, 
  /* [21][0][][] */ 109,82,87,-96,114,-68,89,30,10,-58,-66,53,14,51,-42,-84,-116,-21,39,-2,124,-40,85,-75,62,-83,-35,88,27,16,1,-11,5,33,-85,-108,127,113,-113,-27,3,17,41,-14,-95,-78,-102,99, 
  /* [22][0][][] */ 42,-61,-65,-91,96,-47,116,68,-94,89,-78,-98,127,-122,-105,-82,39,96,-105,-52,100,-64,43,41,94,1,-110,98,-51,-71,-62,-101,55,67,30,23,14,-11,-51,-112,10,-5,12,100,56,-110,82,-15, 
  /* [23][0][][] */ 82,-99,18,76,121,-117,17,-104,77,-81,108,93,33,-111,33,-33,94,-28,-109,125,116,-80,127,-27,-16,-8,97,37,91,66,89,-32,-40,60,33,49,120,4,-115,16,-107,12,21,-119,-68,-93,124,32, 
  /* [24][0][][] */ -66,-64,-92,-60,-83,-100,-58,-79,74,123,89,49,127,69,-27,-110,-85,53,38,-40,107,-68,-45,-25,55,-30,77,64,117,66,12,-50,2,18,61,40,-45,-77,72,-15,-66,-89,114,-1,27,-28,44,75, 
  /* [25][0][][] */ -75,-72,-70,-2,87,-62,-92,64,43,-127,-55,17,82,-10,-98,-21,-78,68,39,-97,77,90,-4,-47,0,-68,-99,22,84,-80,30,123,94,-102,53,81,92,-71,-14,-25,-94,104,-93,-3,82,42,47,34, 
  /* [26][0][][] */ 52,-121,-26,-17,-105,-9,-16,-17,-115,-127,109,88,-84,-52,7,-20,121,29,-84,-73,12,71,100,10,68,69,13,50,9,13,-87,-5,-32,-66,-105,-109,-70,84,-53,119,-99,102,55,30,-58,74,-26,107, 
  /* [27][0][][] */ 24,22,-57,-100,-113,-64,-66,2,53,116,46,-94,-17,73,96,-21,87,2,76,-75,-83,26,-14,-21,-92,58,-94,5,74,44,-17,4,82,78,-75,-80,-79,-61,-101,107,-88,25,41,36,113,45,90,127, 
  /* [28][0][][] */ 90,-2,87,46,-123,-59,-96,-72,-41,-102,45,61,-93,-82,3,83,76,107,-73,74,-42,20,-105,-70,-127,64,-85,-74,-77,-88,-17,-23,-103,19,75,72,14,-114,-55,14,86,44,-90,51,-120,-14,-1,39, 
  /* [29][0][][] */ 53,63,59,-56,-82,11,-123,4,127,-11,-76,-95,113,-107,-53,-46,-102,108,27,-71,-84,-36,57,4,-17,30,-48,-9,-106,-7,127,-5,54,3,-87,-63,-7,115,-10,123,73,115,-51,90,17,118,-37,-26, 
  /* [30][0][][] */ 30,-63,-67,38,-111,26,-70,1,125,-18,-1,-46,-112,19,65,11,7,41,101,-111,44,-109,-123,14,-125,24,-59,127,-17,-120,-102,7,-78,-80,-114,-59,17,-18,-3,35,97,-79,-12,124,115,-46,125,83, 
  /* [31][0][][] */ 77,-97,31,95,43,57,-67,-105,-38,-24,-85,-93,92,-127,-54,104,-52,-94,32,43,58,30,-36,101,47,-119,35,33,-80,-81,43,103,18,15,-97,-14,92,-38,-75,-118,53,-76,-36,29,2,-57,-25,23, 
};
const TfArray<4, int> tensor_dimension5 = { 4, { 32,1,1,48 } };
const TfArray<32, float> quant5_scale = { 32, { 0.0021230012644082308, 0.0023487026337534189, 0.0022828967776149511, 0.0022023401688784361, 0.0021861288696527481, 0.0021475497633218765, 0.0022813875693827868, 0.0023677432909607887, 0.0022359844297170639, 0.0023585006128996611, 0.0023632221855223179, 0.0023492560721933842, 0.0023013309109956026, 0.0023282165639102459, 0.0023647078778594732, 0.0021704258397221565, 0.0021456119138747454, 0.0022723076399415731, 0.0021565395873039961, 0.0021739194635301828, 0.0020792416762560606, 0.0021940467413514853, 0.0022802180610597134, 0.0020488905720412731, 0.0023342510685324669, 0.0023527725134044886, 0.0022388400975614786, 0.0022061883937567472, 0.0023644058965146542, 0.0021359720267355442, 0.0020997754763811827, 0.0023042168468236923, } };
const TfArray<32, int> quant5_zero = { 32, { 0,0,0,0,0,0,0,0,0,0,0,0,0,0,0,0,0,0,0,0,0,0,0,0,0,0,0,0,0,0,0,0 } };
const TfLiteAffineQuantization quant5 = { (TfLiteFloatArray*)&quant5_scale, (TfLiteIntArray*)&quant5_zero, 0 };
const ALIGN(16) int32_t tensor_data6[48] = { 3026, -1770, 6358, 2813, 5138, -41, 3541, 3794, -2615, -1901, -1073, 15597, 4455, 4692, 6543, -6520, -4595, 10290, 3250, 5928, 5568, 37212, 26491, 1126, -1835, 2262, -661, -1131, 3282, 2295, 8606, 9051, -1899, 546, 10282, 5960, 12371, 2811, 1836, -2347, 5386, -2563, 12243, -648, 243, 2222, -2392, 6406, };
const TfArray<1, int> tensor_dimension6 = { 1, { 48 } };
const TfArray<48, float> quant6_scale = { 48, { 0.00012368703028187156, 0.00020486795983742923, 0.00011466213618405163, 0.00020126940216869116, 0.00010288338671671227, 0.00014793685113545507, 0.00010173572081839666, 0.00019851882825605571, 0.00016340616275556386, 0.00018963210459332913, 0.00025902219931595027, 5.0563245167722926e-05, 0.00015064094623085111, 0.00012113530101487413, 0.00013696210226044059, 8.9099237811751664e-05, 0.0001308287464780733, 9.2242058599367738e-05, 0.00018341277609579265, 0.00013407037477008998, 0.000144596939207986, 2.9194603484938852e-05, 3.7876263377256691e-05, 0.00016666016017552465, 0.00021141997422091663, 0.00011089490726590157, 0.00012186099775135517, 0.00016933778533712029, 0.00013898247561883181, 0.00019141548546031117, 7.955433102324605e-05, 9.5785464509390295e-05, 0.00011756873573176563, 0.00021039933199062943, 8.6670363089069724e-05, 0.00010413429117761552, 6.7655091697815806e-05, 0.00021559587912634015, 0.00019951071590185165, 0.00015145051293075085, 0.00010300298890797421, 0.00017910449241753668, 7.2043672844301909e-05, 0.00019526349205989391, 0.00024618030874989927, 0.00023126330052036792, 0.00018183649808634073, 0.00011312302376609296, } };
const TfArray<48, int> quant6_zero = { 48, { 0,0,0,0,0,0,0,0,0,0,0,0,0,0,0,0,0,0,0,0,0,0,0,0,0,0,0,0,0,0,0,0,0,0,0,0,0,0,0,0,0,0,0,0,0,0,0,0 } };
const TfLiteAffineQuantization quant6 = { (TfLiteFloatArray*)&quant6_scale, (TfLiteIntArray*)&quant6_zero, 0 };
const ALIGN(16) int8_t tensor_data7[48*1*1*8] = { 
  /* [0][0][][] */ -15,18,127,-13,-9,50,1,-89, 
  /* [1][0][][] */ 91,-67,61,-82,-12,-69,127,28, 
  /* [2][0][][] */ 67,60,79,-79,-65,28,127,-24, 
  /* [3][0][][] */ -2,30,5,-17,14,-65,127,4, 
  /* [4][0][][] */ 127,-42,-61,-35,-106,-71,-22,76, 
  /* [5][0][][] */ 28,69,127,-5,26,-39,25,-43, 
  /* [6][0][][] */ 108,114,-15,127,-83,24,25,90, 
  /* [7][0][][] */ -33,-6,2,36,32,-122,-127,-33, 
  /* [8][0][][] */ 111,78,-47,87,-68,23,-127,-55, 
  /* [9][0][][] */ 127,-26,-39,43,5,-38,18,-80, 
  /* [10][0][][] */ 71,28,-6,18,-33,127,41,7, 
  /* [11][0][][] */ 127,-20,-15,-126,91,-70,-53,80, 
  /* [12][0][][] */ -64,117,85,-35,9,64,-87,127, 
  /* [13][0][][] */ 127,-7,-96,6,34,-79,24,-89, 
  /* [14][0][][] */ 104,34,2,-15,-127,25,-73,-16, 
  /* [15][0][][] */ 20,6,-106,-39,-127,-48,111,110, 
  /* [16][0][][] */ -1,-52,113,-6,127,-46,-63,-36, 
  /* [17][0][][] */ 22,-20,78,-14,127,-52,-65,1, 
  /* [18][0][][] */ 117,-47,127,46,-26,35,-43,2, 
  /* [19][0][][] */ 64,52,52,-61,-46,-127,24,-46, 
  /* [20][0][][] */ 40,-34,58,127,8,-66,-77,78, 
  /* [21][0][][] */ 92,-12,-73,-127,54,-64,10,113, 
  /* [22][0][][] */ -57,-127,-71,-55,49,-40,126,-79, 
  /* [23][0][][] */ -12,17,31,-45,-102,-127,3,-23, 
  /* [24][0][][] */ 127,5,56,45,-10,-26,-97,76, 
  /* [25][0][][] */ 104,51,-19,-76,-14,-5,-30,127, 
  /* [26][0][][] */ -92,-28,28,-127,104,-2,-50,-89, 
  /* [27][0][][] */ 102,127,-7,-47,6,56,31,2, 
  /* [28][0][][] */ 14,127,2,16,-4,-59,-5,107, 
  /* [29][0][][] */ 118,33,109,127,45,-49,-127,56, 
  /* [30][0][][] */ 127,-103,-82,110,47,2,-68,92, 
  /* [31][0][][] */ 95,-84,26,47,-78,-101,-127,58, 
  /* [32][0][][] */ -86,-72,22,-127,80,-13,-36,-79, 
  /* [33][0][][] */ 25,8,25,33,25,-69,127,36, 
  /* [34][0][][] */ -60,71,119,-81,127,-73,-85,104, 
  /* [35][0][][] */ -75,26,16,123,-7,127,42,-24, 
  /* [36][0][][] */ 90,28,-30,-127,46,-7,21,46, 
  /* [37][0][][] */ 38,48,-12,10,-77,127,65,41, 
  /* [38][0][][] */ -24,-66,25,115,15,51,7,127, 
  /* [39][0][][] */ 16,2,-127,43,-8,-39,-26,66, 
  /* [40][0][][] */ 62,10,-86,-1,-42,54,-57,127, 
  /* [41][0][][] */ 32,5,20,-43,-110,-127,-11,-4, 
  /* [42][0][][] */ -79,56,-88,110,-8,95,-26,-127, 
  /* [43][0][][] */ -10,-2,-29,-127,-18,9,-12,-74, 
  /* [44][0][][] */ 65,20,20,61,28,127,-53,38, 
  /* [45][0][][] */ 4,72,-25,15,127,-31,-75,-9, 
  /* [46][0][][] */ 65,-70,5,127,71,26,-46,80, 
  /* [47][0][][] */ -13,-87,43,-18,127,18,43,29, 
};
const TfArray<4, int> tensor_dimension7 = { 4, { 48,1,1,8 } };
const TfArray<48, float> quant7_scale = { 48, { 0.002194955013692379, 0.0036355953197926283, 0.00203479896299541, 0.0035717349965125322, 0.0018257728079333901, 0.002625293331220746, 0.0018054062966257334, 0.0035229232162237167, 0.0028998125344514847, 0.0033652191050350666, 0.0045966184698045254, 0.00089729746105149388, 0.0026732804253697395, 0.0021496720146387815, 0.0024305351544171572, 0.00158115872181952, 0.0023216924164444208, 0.0016369313234463334, 0.0032548506278544664, 0.0023792183492332697, 0.002566023264080286, 0.00051808863645419478, 0.00067215372109785676, 0.0029575580265372992, 0.003751867450773716, 0.0019679456017911434, 0.0021625503432005644, 0.0030050752684473991, 0.0024663887452334166, 0.0033968670759350061, 0.0014117744285613298, 0.0016998128267005086, 0.0020863795652985573, 0.0037337553221732378, 0.0015380558324977756, 0.0018479714635759592, 0.0012006100732833147, 0.0038259732536971569, 0.0035405254457145929, 0.0026876470074057579, 0.0018278952920809388, 0.0031783957965672016, 0.001278489944525063, 0.0034651539754122496, 0.004368725698441267, 0.0041040079668164253, 0.0032268778886646032, 0.0020074858330190182, } };
const TfArray<48, int> quant7_zero = { 48, { 0,0,0,0,0,0,0,0,0,0,0,0,0,0,0,0,0,0,0,0,0,0,0,0,0,0,0,0,0,0,0,0,0,0,0,0,0,0,0,0,0,0,0,0,0,0,0,0 } };
const TfLiteAffineQuantization quant7 = { (TfLiteFloatArray*)&quant7_scale, (TfLiteIntArray*)&quant7_zero, 0 };
const ALIGN(16) int32_t tensor_data8[8] = { -19440, -5368, 1100, -18236, 3299, -3279, 21106, 17561, };
const TfArray<1, int> tensor_dimension8 = { 1, { 8 } };
const TfArray<8, float> quant8_scale = { 8, { 9.1116336989216506e-05, 0.00011663811164908111, 3.9526901673525572e-05, 9.2572125140577555e-05, 5.1871091272914782e-05, 8.6834625108167529e-05, 6.1423670558724552e-05, 6.8631561589427292e-05, } };
const TfArray<8, int> quant8_zero = { 8, { 0,0,0,0,0,0,0,0 } };
const TfLiteAffineQuantization quant8 = { (TfLiteFloatArray*)&quant8_scale, (TfLiteIntArray*)&quant8_zero, 0 };
const ALIGN(16) int8_t tensor_data9[8*1*1*48] = { 
  /* [0][0][][] */ 127,-22,20,-26,24,57,11,35,114,-84,54,9,-44,61,16,-50,13,-29,-28,-14,14,-60,5,-20,-53,-35,-36,-37,-27,73,-21,33,23,-41,10,-27,64,-65,-53,2,25,-24,-69,-5,62,-29,60,-39, 
  /* [1][0][][] */ 45,2,-12,63,52,62,23,30,70,-83,-6,5,42,19,-40,-16,-36,-44,-71,-2,9,-48,45,76,-1,-63,-1,37,-21,51,-52,127,-27,44,-25,-22,-57,-12,-7,-27,-52,-22,-33,38,24,-5,11,-88, 
  /* [2][0][][] */ -40,-23,-85,38,-75,-27,-5,43,-102,-88,-91,-31,-34,44,-127,-6,77,-90,27,-14,124,80,-29,7,51,89,19,-97,-48,7,60,0,-31,40,67,-63,62,-5,84,101,-48,98,47,-7,-77,68,-36,66, 
  /* [3][0][][] */ 1,-17,-12,38,-27,4,-9,43,76,92,-127,-28,21,-23,-23,74,-58,-15,-8,46,-19,3,69,22,7,11,-49,52,-32,21,-34,-30,12,28,29,20,56,-7,41,-2,-54,82,66,18,28,-13,-28,-38, 
  /* [4][0][][] */ -23,-75,22,-52,3,90,-65,-67,-4,-45,80,40,-62,-20,-12,33,66,18,-25,41,-81,-24,123,-19,-100,-14,-12,14,17,-20,-16,68,-49,49,-20,53,-34,40,-6,23,-33,45,-39,47,127,57,-16,9, 
  /* [5][0][][] */ -69,-68,59,-127,-24,21,-36,-56,-5,67,-54,67,-80,21,50,11,73,53,73,13,27,-2,-14,-68,44,-74,2,-47,-11,-34,37,-75,-10,-41,54,-5,-19,32,35,61,93,12,17,-26,-15,-11,-29,31, 
  /* [6][0][][] */ -67,-62,41,31,-54,-56,7,-66,-92,14,-127,34,16,-47,46,13,-32,15,17,124,-13,-6,74,42,-72,-15,60,16,19,-33,-31,-66,-34,54,60,-92,-38,78,49,-23,-67,52,79,-62,-3,-47,-31,-1, 
  /* [7][0][][] */ 26,1,11,-11,11,28,-42,-46,-127,-27,98,27,8,-30,28,1,16,46,-1,-17,-42,10,-15,-39,38,3,-37,15,-8,-26,-25,-53,-106,-55,-39,8,62,-34,-29,-2,57,1,50,-23,21,-44,45,17, 
};
const TfArray<4, int> tensor_dimension9 = { 4, { 8,1,1,48 } };
const TfArray<8, float> quant9_scale = { 8, { 0.0071263657882809639, 0.0091224675998091698, 0.0030914670787751675, 0.0072402255609631538, 0.0040569272823631763, 0.0067914854735136032, 0.0048040510155260563, 0.0053677926771342754, } };
const TfArray<8, int> quant9_zero = { 8, { 0,0,0,0,0,0,0,0 } };
const TfLiteAffineQuantization quant9 = { (TfLiteFloatArray*)&quant9_scale, (TfLiteIntArray*)&quant9_zero, 0 };
const ALIGN(16) int32_t tensor_data10[48] = { -3673, 1260, 19342, 2179, -1528, -10052, -3102, 19467, 13543, -5148, -6035, -9668, -1688, 25050, 15513, 341, 13044, -7056, 9453, -2807, 22509, -4273, -2890, -1037, 6007, -4771, 1, -5537, 12683, -41954, -5114, 1028, -6900, -2379, -1599, -2370, 12428, -8225, 1045, -19250, -4413, 8705, -8928, -1972, 5608, -5507, 9825, -4659, };
const TfArray<1, int> tensor_dimension10 = { 1, { 48 } };
const TfArray<48, float> quant10_scale = { 48, { 0.00013494979066308588, 0.00011281690240139142, 6.3987594330683351e-05, 7.3054427048191428e-05, 0.00011576808174140751, 7.2885974077507854e-05, 0.0001553407491883263, 7.5008392741438001e-05, 9.1711190179921687e-05, 0.00027752830646932125, 0.00014649116201326251, 4.9229336582357064e-05, 0.0001620419934624806, 5.242067709332332e-05, 7.7674281783401966e-05, 0.00012321211397647858, 7.7574077295139432e-05, 8.1023928942158818e-05, 7.5907351856585592e-05, 0.00015010857896413654, 6.6633874666877091e-05, 0.00019471764971967787, 0.00012807406892534345, 0.0001267618645215407, 0.00011973523942288011, 0.00028305393061600626, 0.00013999744260217994, 0.00019529227574821562, 6.1498991271946579e-05, 5.8288973377784714e-05, 0.00011108663602499291, 0.00010102499072672799, 8.5574734839610755e-05, 0.00019303290173411369, 6.5110885770991445e-05, 0.00010532693704590201, 0.00010260997078148648, 6.4869112975429744e-05, 6.2028608226682991e-05, 6.4711399318184704e-05, 0.00011460221139714122, 9.49721725191921e-05, 0.00011767062824219465, 8.4109502495266497e-05, 8.1296442658640444e-05, 4.2176947317784652e-05, 0.00014739889593329281, 0.00015065075422171503, } };
const TfArray<48, int> quant10_zero = { 48, { 0,0,0,0,0,0,0,0,0,0,0,0,0,0,0,0,0,0,0,0,0,0,0,0,0,0,0,0,0,0,0,0,0,0,0,0,0,0,0,0,0,0,0,0,0,0,0,0 } };
const TfLiteAffineQuantization quant10 = { (TfLiteFloatArray*)&quant10_scale, (TfLiteIntArray*)&quant10_zero, 0 };
const ALIGN(16) int8_t tensor_data11[1*3*3*48] = { 
  /* [0][0][][] */ 76,75,-21,60,1,1,-43,13,31,-75,35,5,18,-111,-34,37,106,31,-75,0,93,12,-19,-20,73,37,17,1,-73,27,-13,-61,127,13,105,20,-37,28,127,30,-71,74,-105,-60,31,-93,-39,0, 103,127,-84,102,23,68,-60,-127,50,38,127,36,-17,-15,-24,-7,-63,127,-94,26,64,127,39,-28,29,22,5,127,-127,104,-29,-127,6,-30,35,79,-76,127,125,36,-127,-72,72,-5,9,19,-127,107, 53,40,-7,29,7,-10,-29,22,24,-91,33,5,5,-87,-26,-27,93,-15,-39,-10,85,17,-22,46,54,76,17,-1,-12,28,-18,-34,108,18,87,12,-19,22,102,-6,-45,72,53,70,30,98,13,-14, 
  /* [0][1][][] */ -21,-49,-127,91,22,56,69,-27,30,41,-49,127,127,-7,-28,-75,-33,86,74,-16,-104,16,31,-112,27,58,17,14,-19,101,19,47,68,127,22,36,-84,1,-56,91,89,4,82,-122,7,-107,-7,127, 52,-95,-49,-127,127,18,127,-88,-127,127,0,75,-108,127,127,-19,-127,78,10,127,42,-8,127,-11,-127,127,32,-74,-87,46,-127,102,102,-108,25,127,127,70,-5,127,126,-67,-26,-5,108,-71,0,34, -8,-49,-122,45,-16,127,51,-23,29,33,-43,79,-16,-2,-33,-22,-79,87,127,-37,-127,16,-57,127,9,20,26,34,53,87,38,39,5,-6,-47,-115,-45,-23,-4,33,45,67,-19,127,-16,124,-26,84, 
  /* [0][2][][] */ -34,-20,-16,19,-10,14,-17,4,31,-39,-1,7,34,-86,-41,35,102,-1,16,10,-64,30,-7,-5,22,-7,-5,1,-3,11,37,3,28,18,127,-4,-8,63,78,54,2,68,127,-26,-56,-127,3,-21, -127,-4,-103,37,-124,6,-65,-10,23,93,-87,56,-17,-33,-23,127,-89,37,-92,-31,-78,32,0,-27,-17,71,-127,-23,-66,127,59,21,34,-23,23,31,-28,61,-52,69,-75,-127,-117,-32,-127,63,-85,90, -28,-22,-16,13,11,-1,-10,1,22,-68,-15,-15,-11,-79,-24,1,106,-43,91,20,-68,3,1,35,21,-14,-7,-6,9,7,35,10,49,10,78,22,-3,62,97,10,5,71,-55,55,-37,99,1,-54, 
};
const TfArray<4, int> tensor_dimension11 = { 4, { 1,3,3,48 } };
const TfArray<48, float> quant11_scale = { 48, { 0.010605695657432079, 0.0088662737980484962, 0.0050287814810872078, 0.00574134336784482, 0.0090982066467404366, 0.005728104617446661, 0.012208220548927784, 0.0058949049562215805, 0.0072075771167874336, 0.021810933947563171, 0.01151273213326931, 0.0038689305074512959, 0.012734870426356792, 0.0041197380051016808, 0.0061044171452522278, 0.0096832327544689178, 0.0060965418815612793, 0.0063676657155156136, 0.0059655541554093361, 0.011797023937106133, 0.0052367523312568665, 0.015302848070859909, 0.010065333917737007, 0.0099622076377272606, 0.0094099855050444603, 0.022245191037654877, 0.011002390645444393, 0.015348008833825588, 0.0048332023434340954, 0.0045809270814061165, 0.0087302923202514648, 0.0079395482316613197, 0.0067253131419420242, 0.015170443803071976, 0.0051170606166124344, 0.0082776378840208054, 0.0080641116946935654, 0.0050980597734451294, 0.004874824546277523, 0.0050856652669608593, 0.0090065812692046165, 0.0074638575315475464, 0.0092477276921272278, 0.006610160693526268, 0.0063890824094414711, 0.0033146836794912815, 0.011584070511162281, 0.01183963380753994, } };
const TfArray<48, int> quant11_zero = { 48, { 0,0,0,0,0,0,0,0,0,0,0,0,0,0,0,0,0,0,0,0,0,0,0,0,0,0,0,0,0,0,0,0,0,0,0,0,0,0,0,0,0,0,0,0,0,0,0,0 } };
const TfLiteAffineQuantization quant11 = { (TfLiteFloatArray*)&quant11_scale, (TfLiteIntArray*)&quant11_zero, 3 };
const ALIGN(16) int32_t tensor_data12[48] = { 35776, 8587, 2230, 1474, 6702, 3447, 9404, 5691, 3919, -9115, 15560, 1317, 14330, 2802, 6183, 3150, 11485, -968, 14649, 177, 3086, -1087, 4479, 11175, 3054, -5311, 3834, 16711, 853, 8907, 2826, 17833, 1012, 7940, -582, -2171, 3878, 2916, 516, 2314, 19601, -1236, 21951, 4879, 1937, 6684, 6928, -1986, };
const TfArray<1, int> tensor_dimension12 = { 1, { 48 } };
const TfArray<48, float> quant12_scale = { 48, { 2.9705946872127242e-05, 9.3862916401121765e-05, 0.00012949027586728334, 0.00013595027849078178, 0.00010755877156043425, 0.00013272135402075946, 8.1557693192735314e-05, 0.00011646321945590898, 0.00011392029409762472, 8.1135105574503541e-05, 6.3219406001735479e-05, 0.00017011667659971863, 5.5867025366751477e-05, 0.00013273302465677261, 0.0001111819437937811, 0.00011059366079280153, 6.4795771322678775e-05, 0.00016596094064880162, 6.2389503000304103e-05, 0.00011041799007216468, 0.00020368007244542241, 0.00010509007552172989, 0.0001233997754752636, 6.6669112129602581e-05, 0.00014295100118033588, 0.00011459673987701535, 0.00011988087499048561, 5.6873795983847231e-05, 0.00018484945758245885, 8.9443710749037564e-05, 0.00011610747606027871, 5.3797510190634057e-05, 0.00011487217852845788, 0.00010217469389317557, 0.00012378733663354069, 0.00017779931658878922, 0.00014459462545346469, 0.00012617622269317508, 0.00016701735148672014, 0.00014381583605427295, 4.7563898988300934e-05, 0.00013875812874175608, 3.9711914723739028e-05, 9.6116651548072696e-05, 0.0001219423211296089, 0.00011722164344973862, 8.9864639448933303e-05, 0.00015060794248711318, } };
const TfArray<48, int> quant12_zero = { 48, { 0,0,0,0,0,0,0,0,0,0,0,0,0,0,0,0,0,0,0,0,0,0,0,0,0,0,0,0,0,0,0,0,0,0,0,0,0,0,0,0,0,0,0,0,0,0,0,0 } };
const TfLiteAffineQuantization quant12 = { (TfLiteFloatArray*)&quant12_scale, (TfLiteIntArray*)&quant12_zero, 0 };
const ALIGN(16) int8_t tensor_data13[48*1*1*8] = { 
  /* [0][0][][] */ -127,47,-11,-18,55,37,13,-49, 
  /* [1][0][][] */ -1,-47,-34,-15,-48,-127,15,15, 
  /* [2][0][][] */ -74,72,7,-57,-52,46,-68,127, 
  /* [3][0][][] */ 59,46,50,-16,-48,-127,43,-23, 
  /* [4][0][][] */ 10,61,-110,25,-127,90,39,37, 
  /* [5][0][][] */ -36,45,34,-31,-90,-127,-62,-9, 
  /* [6][0][][] */ -65,127,114,-45,-74,-28,17,-35, 
  /* [7][0][][] */ -3,-2,34,60,2,-127,-8,58, 
  /* [8][0][][] */ 127,24,-80,73,-78,-63,-102,-3, 
  /* [9][0][][] */ 102,-40,-74,-72,3,-27,-44,127, 
  /* [10][0][][] */ -87,1,5,127,0,66,30,-90, 
  /* [11][0][][] */ 30,14,53,-22,12,119,127,101, 
  /* [12][0][][] */ -78,-99,-42,-88,127,-31,-22,45, 
  /* [13][0][][] */ -32,-9,-5,48,19,-127,46,76, 
  /* [14][0][][] */ 81,82,109,23,70,-127,-84,-30, 
  /* [15][0][][] */ -46,71,127,59,-15,19,46,-71, 
  /* [16][0][][] */ -110,-48,47,-76,127,12,-57,-6, 
  /* [17][0][][] */ 42,-46,-52,-2,-15,127,-23,45, 
  /* [18][0][][] */ -20,127,72,-51,-55,40,90,-95, 
  /* [19][0][][] */ 21,113,83,127,-24,38,38,29, 
  /* [20][0][][] */ 15,12,56,-127,-54,-2,65,-17, 
  /* [21][0][][] */ -99,75,40,-127,110,64,117,12, 
  /* [22][0][][] */ 74,-37,-98,65,58,-47,-62,127, 
  /* [23][0][][] */ 33,-89,-127,-39,63,-10,-71,102, 
  /* [24][0][][] */ 48,-15,-99,21,-58,39,-127,114, 
  /* [25][0][][] */ -11,-17,53,14,127,-13,-77,-47, 
  /* [26][0][][] */ 16,107,127,-28,-40,-24,55,-75, 
  /* [27][0][][] */ -37,42,122,-81,25,13,97,-127, 
  /* [28][0][][] */ 57,-4,85,127,65,-34,39,91, 
  /* [29][0][][] */ 66,77,110,26,-62,32,-127,89, 
  /* [30][0][][] */ 43,-2,-78,57,-127,-36,-35,51, 
  /* [31][0][][] */ 18,127,109,-62,-83,44,107,-123, 
  /* [32][0][][] */ 70,-10,-9,26,113,127,38,-37, 
  /* [33][0][][] */ 18,-38,-127,10,19,-21,-39,75, 
  /* [34][0][][] */ 27,-50,23,-127,-4,70,-13,10, 
  /* [35][0][][] */ -28,17,94,-8,15,-127,-4,-20, 
  /* [36][0][][] */ -5,13,-33,-127,-11,12,8,-38, 
  /* [37][0][][] */ 65,-17,-18,-91,-79,127,-64,-73, 
  /* [38][0][][] */ 84,-54,-26,93,64,31,-31,127, 
  /* [39][0][][] */ 127,85,32,69,-8,91,-44,0, 
  /* [40][0][][] */ 53,-104,-127,-29,16,10,-49,105, 
  /* [41][0][][] */ -9,-55,-127,-95,-8,-78,-37,-21, 
  /* [42][0][][] */ 60,110,85,127,-79,-34,32,45, 
  /* [43][0][][] */ 127,-35,-110,-109,-70,-45,36,66, 
  /* [44][0][][] */ -6,79,111,-78,-94,-8,77,-127, 
  /* [45][0][][] */ 38,19,-127,56,-40,29,24,72, 
  /* [46][0][][] */ 47,-36,-68,-127,21,-26,-37,51, 
  /* [47][0][][] */ 87,-117,127,-59,72,-26,14,8, 
};
const TfArray<4, int> tensor_dimension13 = { 4, { 48,1,1,8 } };
const TfArray<48, float> quant13_scale = { 48, { 0.00065849785460159183, 0.0020806787069886923, 0.0028704376891255379, 0.0030136380810290575, 0.0023842775262892246, 0.0029420617502182722, 0.0018079063156619668, 0.0025816643610596657, 0.0025252946652472019, 0.001798538607545197, 0.0014013976324349642, 0.0037710117176175117, 0.0012384159490466118, 0.0029423204250633717, 0.0024645931553095579, 0.0024515525437891483, 0.0014363412046805024, 0.003678890410810709, 0.0013830011012032628, 0.0024476584512740374, 0.0045150183141231537, 0.0023295534774661064, 0.0027354282792657614, 0.0014778680633753538, 0.0031688243616372347, 0.0025402896571904421, 0.0026574241928756237, 0.0012607332319021225, 0.0040975962765514851, 0.0019827173091471195, 0.0025737783871591091, 0.0011925405124202371, 0.0025463954079896212, 0.0022649276070296764, 0.0027440194971859455, 0.0039413142949342728, 0.0032052588649094105, 0.0027969744987785816, 0.0037023082841187716, 0.0031879954040050507, 0.0010543587850406766, 0.0030758802313357592, 0.00088030222104862332, 0.0021306376438587904, 0.0027031206991523504, 0.0025984763633459806, 0.0019920479971915483, 0.0033385574351996183, } };
const TfArray<48, int> quant13_zero = { 48, { 0,0,0,0,0,0,0,0,0,0,0,0,0,0,0,0,0,0,0,0,0,0,0,0,0,0,0,0,0,0,0,0,0,0,0,0,0,0,0,0,0,0,0,0,0,0,0,0 } };
const TfLiteAffineQuantization quant13 = { (TfLiteFloatArray*)&quant13_scale, (TfLiteIntArray*)&quant13_zero, 0 };
const ALIGN(16) int32_t tensor_data14[8] = { -15737, -43547, 1790, 9658, -22408, 1524, -32442, -1024, };
const TfArray<1, int> tensor_dimension14 = { 1, { 8 } };
const TfArray<8, float> quant14_scale = { 8, { 0.00014570046914741397, 4.9393598601454869e-05, 4.2117415432585403e-05, 4.9134989239973947e-05, 5.2763942221645266e-05, 6.7889588535763323e-05, 4.9557405873201787e-05, 6.4893967646639794e-05, } };
const TfArray<8, int> quant14_zero = { 8, { 0,0,0,0,0,0,0,0 } };
const TfLiteAffineQuantization quant14 = { (TfLiteFloatArray*)&quant14_scale, (TfLiteIntArray*)&quant14_zero, 0 };
const ALIGN(16) int8_t tensor_data15[8*1*1*48] = { 
  /* [0][0][][] */ 43,46,-79,49,15,24,-87,-30,7,-20,-2,-38,-18,1,41,3,49,-20,44,-20,19,-35,43,-2,11,-27,-19,17,-15,-3,-19,2,45,19,20,12,127,60,29,-27,3,-18,-6,-23,76,27,18,-46, 
  /* [1][0][][] */ 62,21,12,-10,32,90,-9,-27,36,64,-40,-74,114,-13,12,46,27,32,24,-87,127,-26,45,51,42,24,39,16,32,-69,63,77,61,103,9,119,64,27,20,24,83,20,38,31,22,44,106,-70, 
  /* [2][0][][] */ -16,9,78,127,-50,27,-2,56,37,71,18,-82,-42,116,29,42,-82,-96,79,7,4,65,-54,-83,-29,-42,27,-3,-113,16,0,-4,-32,-32,-91,-48,14,28,-87,-19,-27,-57,-35,18,70,-80,-29,27, 
  /* [3][0][][] */ -29,51,-74,-9,19,-80,8,66,108,-79,-44,16,-6,-17,8,61,24,5,-17,-25,-9,19,-75,36,-25,-32,40,-13,63,-33,41,-55,34,-19,-27,-49,-127,-6,-81,16,-26,-57,39,0,-56,14,-13,-36, 
  /* [4][0][][] */ 58,-16,30,-17,-62,66,23,72,-127,-53,56,43,73,-61,-64,-61,83,70,66,-34,15,-89,-22,51,-27,8,-47,-118,-55,-53,87,35,85,6,114,87,69,68,59,39,13,34,-51,-33,89,73,95,-50, 
  /* [5][0][][] */ 35,81,18,93,28,28,-48,-96,-99,26,-14,-2,21,60,33,-71,77,108,-24,34,-13,-68,-16,-69,-104,-78,-42,55,-4,41,-34,42,-2,-80,67,3,-37,127,-38,-114,-12,-38,-19,-41,-6,-18,-41,97, 
  /* [6][0][][] */ 113,53,4,127,-87,28,16,61,26,-86,70,90,79,-39,-32,-57,67,28,-76,28,74,-31,-22,0,5,66,-45,-45,19,-45,62,61,22,-49,-1,89,102,-80,7,6,-90,77,-111,57,57,103,105,-55, 
  /* [7][0][][] */ 17,12,127,39,-32,62,-82,7,-35,98,-10,-10,44,61,11,-8,-48,-14,-62,9,-10,34,3,-42,-10,44,49,-17,1,4,18,-12,-93,-18,60,29,93,-3,33,-14,-22,-31,-29,-53,-2,-30,7,25, 
};
const TfArray<4, int> tensor_dimension15 = { 4, { 8,1,1,48 } };
const TfArray<8, float> quant15_scale = { 8, { 0.0078447973355650902, 0.0026594477239996195, 0.0022676838561892509, 0.0026455237530171871, 0.0028409135993570089, 0.0036553079262375832, 0.0026682673487812281, 0.0034940177574753761, } };
const TfArray<8, int> quant15_zero = { 8, { 0,0,0,0,0,0,0,0 } };
const TfLiteAffineQuantization quant15 = { (TfLiteFloatArray*)&quant15_scale, (TfLiteIntArray*)&quant15_zero, 0 };
const ALIGN(16) int32_t tensor_data16[48] = { 15642, -21998, -959, 3405, -481, 14434, 6025, -2645, -11434, 2079, -3073, -2053, -9076, -16568, 7016, -274, -10040, 36227, -2511, -16575, 15421, -1217, -632, -637, -2254, -1748, -5483, -1434, -2086, 1504, -116, 23988, 17684, -283, 7299, 21415, -1002, 18675, 1403, -358, -3470, -9721, -2312, 1339, 3803, 31279, 15151, -7221, };
const TfArray<1, int> tensor_dimension16 = { 1, { 48 } };
const TfArray<48, float> quant16_scale = { 48, { 8.0606645497027785e-05, 6.4962405303958803e-05, 0.00094482034910470247, 0.00018248437845613807, 0.00014406461559701711, 0.00013365782797336578, 8.4242070442996919e-05, 0.00028773472877219319, 8.5490792116615921e-05, 0.00030174211133271456, 0.00018217171600554138, 0.00011852152238134295, 0.00014626135816797614, 7.0444679295178503e-05, 0.00010927865514531732, 7.8553101047873497e-05, 7.9044373705983162e-05, 5.6068238336592913e-05, 0.00029717484721913934, 5.1274935685796663e-05, 9.9179575045127422e-05, 0.00029722982435487211, 0.00013293772644829005, 0.00012424598389770836, 0.00015054356481414288, 0.00014308656682260334, 0.00014570001803804189, 0.00021832872880622745, 0.00019168767903465778, 0.00011802192602772266, 0.0001061022630892694, 8.9034641860052943e-05, 9.594237053534016e-05, 0.00014926659059710801, 9.0124267444480211e-05, 9.7797346825245768e-05, 0.00036628401721827686, 0.00011242262553423643, 8.3575345342978835e-05, 0.00025519685004837811, 9.6694966487120837e-05, 0.00010564500553300604, 0.00015497974527534097, 0.00011412443564040586, 0.00013898403267376125, 5.2828534535365179e-05, 0.00010350174852646887, 0.00012159233301645145, } };
const TfArray<48, int> quant16_zero = { 48, { 0,0,0,0,0,0,0,0,0,0,0,0,0,0,0,0,0,0,0,0,0,0,0,0,0,0,0,0,0,0,0,0,0,0,0,0,0,0,0,0,0,0,0,0,0,0,0,0 } };
const TfLiteAffineQuantization quant16 = { (TfLiteFloatArray*)&quant16_scale, (TfLiteIntArray*)&quant16_zero, 0 };
const ALIGN(16) int8_t tensor_data17[1*3*3*48] = { 
  /* [0][0][][] */ -60,8,39,8,127,-40,17,10,13,30,64,-18,6,18,-76,18,69,-48,-20,60,-39,13,-60,-7,-16,1,33,-46,-23,127,27,-96,-44,101,115,-80,8,-55,-127,-30,15,-20,-9,-66,-3,-36,-126,27, -56,81,-1,34,-12,-87,105,-14,89,12,71,127,63,127,-23,36,108,-86,6,86,-32,-20,109,-102,8,52,-96,25,-29,-85,121,-127,-127,-92,7,-26,-64,-38,-112,18,-56,-27,21,-127,23,-86,41,53, -28,3,11,-3,44,-39,17,-1,30,23,24,-49,-10,11,-69,31,49,-46,-17,73,-26,-1,-72,0,25,5,30,-109,-35,50,-43,-86,12,-9,99,-44,11,-39,-91,6,17,-6,2,-54,-13,-55,-127,-16, 
  /* [0][1][][] */ -127,127,-11,-66,13,-84,10,-8,30,20,77,38,65,102,-69,42,127,-127,11,105,-30,-51,-108,-30,-127,-5,-29,11,-6,4,70,-79,-70,127,-112,-75,34,-68,40,63,-97,25,-71,56,-16,-127,14,-44, 3,121,127,127,-38,88,-127,127,127,-127,-76,68,127,99,127,-94,-45,-120,127,8,-127,127,127,6,106,120,72,127,127,-72,127,14,-67,-100,-33,-127,127,127,98,62,-54,127,-21,72,127,30,1,-127, -68,71,-31,-51,-61,-119,12,-22,-5,6,109,35,36,98,-55,127,110,-117,-12,123,32,-81,-102,-29,30,-11,-27,16,-2,20,83,-59,-10,-33,-127,-57,23,-80,46,-127,-75,32,127,65,-30,-86,-5,120, 
  /* [0][2][][] */ -30,-13,3,-10,32,-43,24,4,38,29,127,34,8,-15,-35,92,71,-62,-54,16,-29,7,-49,40,-14,-8,-26,-20,10,58,-8,-14,-11,40,-66,31,-44,-50,47,-36,84,-9,-3,6,-24,0,13,-32, -58,110,6,21,-83,-127,75,-71,66,22,38,-50,-34,21,-53,107,67,-1,-10,127,-51,14,92,127,17,-127,127,9,19,-43,-37,-93,13,-46,-68,-90,-70,-73,30,37,127,53,-34,41,-27,-79,-104,-5, 34,-26,17,-4,-15,-44,14,12,37,25,94,20,35,-3,-33,62,59,-35,-62,24,-27,-3,-49,35,14,-13,-22,-57,6,-5,-11,0,0,2,-27,43,-34,-40,52,2,45,-2,35,2,-24,-59,32,31, 
};
const TfArray<4, int> tensor_dimension17 = { 4, { 1,3,3,48 } };
const TfArray<48, float> quant17_scale = { 48, { 0.0052317995578050613, 0.0042164050973951817, 0.061323858797550201, 0.011844205670058727, 0.0093505587428808212, 0.0086751030758023262, 0.0054677580483257771, 0.018675511702895164, 0.0055488063953816891, 0.019584665074944496, 0.011823912151157856, 0.0076926765032112598, 0.0094931395724415779, 0.0045722341164946556, 0.0070927650667726994, 0.0050985137932002544, 0.0051303999498486519, 0.0036391264293342829, 0.019288226962089539, 0.0033280157949775457, 0.006437281146645546, 0.019291793927550316, 0.0086283646523952484, 0.0080642243847250938, 0.009771076962351799, 0.009287077933549881, 0.0094567053020000458, 0.014170694164931774, 0.012441548518836498, 0.0076602501794695854, 0.0068866005167365074, 0.0057788211852312088, 0.0062271696515381336, 0.0096881948411464691, 0.005849543958902359, 0.0063475673086941242, 0.023773778229951859, 0.0072968257591128349, 0.0054244836792349815, 0.016563631594181061, 0.0062760170549154282, 0.006856922060251236, 0.010059008374810219, 0.0074072820134460926, 0.0090208016335964203, 0.0034288526512682438, 0.0067178132012486458, 0.0078919883817434311, } };
const TfArray<48, int> quant17_zero = { 48, { 0,0,0,0,0,0,0,0,0,0,0,0,0,0,0,0,0,0,0,0,0,0,0,0,0,0,0,0,0,0,0,0,0,0,0,0,0,0,0,0,0,0,0,0,0,0,0,0 } };
const TfLiteAffineQuantization quant17 = { (TfLiteFloatArray*)&quant17_scale, (TfLiteIntArray*)&quant17_zero, 3 };
const ALIGN(16) int32_t tensor_data18[48] = { 706, 6924, -9567, 5890, 3784, 7918, 3839, 14403, 11395, 9282, -3153, -577, 1360, 5153, 4172, -1066, -154, 7635, 16758, 631, 4314, 15550, 4111, 8153, 17022, 8632, 2054, 13204, 3778, 5660, -2728, 11743, 1878, 12732, 12671, 7246, 139852, 14818, 7790, 19436, 4627, 1309, 5357, 2350, 4724, 3074, 3216, 5403, };
const TfArray<1, int> tensor_dimension18 = { 1, { 48 } };
const TfArray<48, float> quant18_scale = { 48, { 0.00026080384850502014, 0.00011049398017348722, 8.0019461165647954e-05, 0.00010191918408963829, 0.00012797050294466317, 7.9286619438789785e-05, 0.00012130980030633509, 6.2044331571087241e-05, 7.7918237366247922e-05, 7.8672463132534176e-05, 0.00011861779785249382, 0.00011389401333872229, 0.00014901268878020346, 0.00011951939086429775, 0.0001287941267946735, 7.8120341640897095e-05, 0.00014380666834767908, 9.4696857559029013e-05, 5.7685207139002159e-05, 0.00017612913507036865, 0.0001147662042058073, 5.3637701057596132e-05, 0.00013415580906439573, 8.9014603872783482e-05, 5.3411786211654544e-05, 0.00010152102913707495, 0.00012440806312952191, 7.0212823629844934e-05, 6.5681655541993678e-05, 0.00013990422303322703, 0.00017098334501497447, 6.6951186454389244e-05, 0.00019969686400145292, 6.217986810952425e-05, 5.3947431297274306e-05, 0.00010951906733680516, 1.1345487109792884e-05, 6.2567720306105912e-05, 7.863865903345868e-05, 5.1918661483796313e-05, 8.546798926545307e-05, 0.0001608362072147429, 0.00012444036838132888, 8.4929379227105528e-05, 0.00013287381443660706, 9.7812313470058143e-05, 0.00012717382924165577, 6.7115470301359892e-05, } };
const TfArray<48, int> quant18_zero = { 48, { 0,0,0,0,0,0,0,0,0,0,0,0,0,0,0,0,0,0,0,0,0,0,0,0,0,0,0,0,0,0,0,0,0,0,0,0,0,0,0,0,0,0,0,0,0,0,0,0 } };
const TfLiteAffineQuantization quant18 = { (TfLiteFloatArray*)&quant18_scale, (TfLiteIntArray*)&quant18_zero, 0 };
const ALIGN(16) int8_t tensor_data19[48*1*1*8] = { 
  /* [0][0][][] */ -80,-127,-33,25,-32,-7,49,-50, 
  /* [1][0][][] */ -11,127,40,-83,5,-90,-70,92, 
  /* [2][0][][] */ -127,-64,38,8,69,4,30,-17, 
  /* [3][0][][] */ 6,-36,-127,-58,34,-52,-32,50, 
  /* [4][0][][] */ -63,-108,103,-22,127,-52,52,-1, 
  /* [5][0][][] */ -17,66,51,-105,113,42,-62,127, 
  /* [6][0][][] */ -127,94,56,67,-49,6,37,-116, 
  /* [7][0][][] */ 43,-15,54,31,50,-127,-2,98, 
  /* [8][0][][] */ -3,68,-15,-33,18,104,127,-73, 
  /* [9][0][][] */ 91,127,3,-68,-78,-77,-55,114, 
  /* [10][0][][] */ 34,-7,27,2,-24,31,-127,-75, 
  /* [11][0][][] */ -71,15,-110,-77,127,17,40,62, 
  /* [12][0][][] */ 84,35,-24,-6,127,94,12,2, 
  /* [13][0][][] */ -127,-120,-5,62,-108,45,75,6, 
  /* [14][0][][] */ -13,99,-87,122,-56,127,-20,35, 
  /* [15][0][][] */ -12,-85,-31,-83,127,67,-25,56, 
  /* [16][0][][] */ 71,-83,0,47,37,-18,34,-127, 
  /* [17][0][][] */ -87,-85,-127,109,6,105,81,-115, 
  /* [18][0][][] */ 84,-6,127,14,-39,-115,-76,-36, 
  /* [19][0][][] */ -29,127,35,27,107,-117,-77,-34, 
  /* [20][0][][] */ -75,-18,-127,-45,36,-3,-7,0, 
  /* [21][0][][] */ -127,-19,41,65,-94,-108,109,-42, 
  /* [22][0][][] */ 57,-3,-127,-62,-39,-12,-1,46, 
  /* [23][0][][] */ -30,27,127,-22,-87,43,-14,-92, 
  /* [24][0][][] */ -83,89,70,102,127,95,0,-36, 
  /* [25][0][][] */ -56,-127,-65,29,-59,42,43,-2, 
  /* [26][0][][] */ 98,105,-127,-57,-106,-20,-68,39, 
  /* [27][0][][] */ 59,50,-61,17,-127,23,-32,-12, 
  /* [28][0][][] */ -32,61,16,-80,80,98,-127,-104, 
  /* [29][0][][] */ 42,-8,-4,-79,-127,9,14,-58, 
  /* [30][0][][] */ -94,-6,39,127,53,24,-38,-22, 
  /* [31][0][][] */ 10,-127,-3,-89,-126,65,-69,-113, 
  /* [32][0][][] */ -127,0,28,-9,5,-32,2,21, 
  /* [33][0][][] */ 46,-77,-127,-110,1,14,-59,19, 
  /* [34][0][][] */ 58,95,127,-2,-122,-61,81,-79, 
  /* [35][0][][] */ 112,31,16,15,-115,-48,-127,-48, 
  /* [36][0][][] */ 127,14,71,-31,6,-23,70,72, 
  /* [37][0][][] */ 127,113,-10,-11,89,83,-125,33, 
  /* [38][0][][] */ -40,97,109,127,-25,73,26,-80, 
  /* [39][0][][] */ 35,53,127,-35,91,-51,-33,11, 
  /* [40][0][][] */ 74,33,29,10,-69,-127,20,-47, 
  /* [41][0][][] */ 33,-52,21,127,-24,72,5,77, 
  /* [42][0][][] */ -14,-108,67,-49,127,-28,88,23, 
  /* [43][0][][] */ -14,-34,-97,-42,126,50,-73,127, 
  /* [44][0][][] */ 102,-18,127,-2,2,28,-51,7, 
  /* [45][0][][] */ -26,28,28,-23,-103,-127,-13,95, 
  /* [46][0][][] */ -50,85,71,38,-9,-28,48,-127, 
  /* [47][0][][] */ 40,-11,14,127,-6,-115,84,61, 
};
const TfArray<4, int> tensor_dimension19 = { 4, { 48,1,1,8 } };
const TfArray<48, float> quant19_scale = { 48, { 0.0071996045298874378, 0.00305023486725986, 0.0022089723497629166, 0.002813523868098855, 0.003532682079821825, 0.0021887419279664755, 0.0033488103654235601, 0.0017127610044553876, 0.002150967251509428, 0.0021717878989875317, 0.0032744964119046926, 0.0031440942548215389, 0.0041135605424642563, 0.0032993853092193604, 0.0035554184578359127, 0.002156546339392662, 0.0039698462933301926, 0.0026141484268009663, 0.0015924255130812526, 0.0048621222376823425, 0.0031681715045124292, 0.0014806922990828753, 0.0037034298293292522, 0.0024572871625423431, 0.0014744558138772845, 0.0028025326319038868, 0.0034343390725553036, 0.0019382558530196548, 0.0018131708493456244, 0.00386211764998734, 0.0047200703993439674, 0.0018482169834896922, 0.0055127195082604885, 0.0017165024764835835, 0.0014892425388097763, 0.0030233219731599092, 0.00031319714616984129, 0.0017272093100473285, 0.002170854713767767, 0.0014332374557852745, 0.0023593814112246037, 0.0044399541802704334, 0.0034352310467511415, 0.0023445128463208675, 0.0036680400371551514, 0.0027001518756151199, 0.0035106895957142115, 0.0018527519423514605, } };
const TfArray<48, int> quant19_zero = { 48, { 0,0,0,0,0,0,0,0,0,0,0,0,0,0,0,0,0,0,0,0,0,0,0,0,0,0,0,0,0,0,0,0,0,0,0,0,0,0,0,0,0,0,0,0,0,0,0,0 } };
const TfLiteAffineQuantization quant19 = { (TfLiteFloatArray*)&quant19_scale, (TfLiteIntArray*)&quant19_zero, 0 };
const ALIGN(16) int32_t tensor_data20[8] = { 4351, -2472, 16643, -9545, -15591, -17169, -9500, -1933, };
const TfArray<1, int> tensor_dimension20 = { 1, { 8 } };
const TfArray<8, float> quant20_scale = { 8, { 7.8207529440987855e-05, 0.00011262104817433283, 8.78955761436373e-05, 0.00011159415589645505, 0.00011911774345207959, 7.9657926107756793e-05, 0.00017875005141831934, 0.00018131776596419513, } };
const TfArray<8, int> quant20_zero = { 8, { 0,0,0,0,0,0,0,0 } };
const TfLiteAffineQuantization quant20 = { (TfLiteFloatArray*)&quant20_scale, (TfLiteIntArray*)&quant20_zero, 0 };
const ALIGN(16) int8_t tensor_data21[8*1*1*48] = { 
  /* [0][0][][] */ -16,-27,47,-49,61,90,68,94,114,-51,-22,58,-25,-18,20,-18,49,45,11,-52,-27,19,-87,-39,30,-12,20,-79,-32,31,45,26,27,46,64,15,126,-54,-82,9,-59,-72,-34,-3,-70,-88,-127,62, 
  /* [1][0][][] */ -10,-1,-41,49,-1,14,-40,-14,-54,25,18,82,-30,4,-26,127,39,58,11,-29,-44,-24,-63,21,11,-11,-18,-82,44,-12,-54,-62,63,-34,-34,-53,33,35,54,-38,8,69,51,-41,1,-33,-53,-22, 
  /* [2][0][][] */ 5,-74,-25,-5,-33,18,1,13,105,19,-7,-18,-32,-78,34,9,3,-58,-25,-3,-101,52,8,26,5,46,-39,-28,-22,-40,42,-44,-96,28,-52,55,-65,58,-20,-21,127,-18,-1,38,27,37,-60,-34, 
  /* [3][0][][] */ -28,-113,94,55,20,-103,-18,-10,-124,127,62,-53,49,7,-21,23,59,33,-27,48,71,82,34,-61,10,83,64,34,-32,-72,15,16,-22,4,50,12,-16,-83,-36,43,-24,-8,23,-68,-79,20,-4,26, 
  /* [4][0][][] */ -13,59,-17,76,36,2,11,-4,-52,77,45,73,3,22,63,11,6,-105,-9,-15,93,-13,-102,61,74,-22,30,28,50,29,-12,-57,-55,127,5,13,59,-24,18,25,-29,41,-3,-25,2,-51,-30,20, 
  /* [5][0][][] */ -25,3,-9,-75,-127,32,117,29,16,58,-26,-29,-106,-12,62,-33,-88,39,-56,-82,1,102,-6,38,107,27,-7,12,-29,-18,126,-55,-13,103,76,92,-23,55,88,34,-23,-38,-25,36,-60,52,30,52, 
  /* [6][0][][] */ 4,-23,-9,25,-54,-50,13,5,25,-11,42,5,-52,-25,33,57,5,-57,7,-59,68,-24,1,-28,6,-4,10,36,40,3,12,127,46,-16,-15,22,4,-10,21,14,2,37,-25,-48,-3,-22,-20,36, 
  /* [7][0][][] */ -26,-18,-45,-4,5,-25,4,11,39,6,24,-2,-8,11,3,0,32,-6,3,-3,-61,9,10,-28,-1,-6,-54,-13,-15,-18,18,31,19,-11,28,12,-20,127,-14,-40,-39,1,-45,-35,24,63,-72,-12, 
};
const TfArray<4, int> tensor_dimension21 = { 4, { 8,1,1,48 } };
const TfArray<8, float> quant21_scale = { 8, { 0.0040764464065432549, 0.0058701974339783192, 0.0045814206823706627, 0.0058166724629700184, 0.0062088277190923691, 0.004152046050876379, 0.0093170693144202232, 0.0094509078189730644, } };
const TfArray<8, int> quant21_zero = { 8, { 0,0,0,0,0,0,0,0 } };
const TfLiteAffineQuantization quant21 = { (TfLiteFloatArray*)&quant21_scale, (TfLiteIntArray*)&quant21_zero, 0 };
const ALIGN(16) int32_t tensor_data22[48] = { -373, 30685, 28925, -1791, -705, -12856, 24490, 20775, -15304, 2135, -1140, 17519, 22594, -16971, -11418, -1047, 125, 30835, -620, -1135, 47519, 12715, -10616, -8548, 17588, 12976, -3189, -1652, -5236, -562, 32552, 2430, -538, 10247, 13263, 16982, 232, 46938, -7496, -1814, 29144, -407, -2784, 18563, 419, -959, -9471, 14912, };
const TfArray<1, int> tensor_dimension22 = { 1, { 48 } };
const TfArray<48, float> quant22_scale = { 48, { 0.00035903899697586894, 9.3314105470199138e-05, 0.00010848265810636804, 9.942346514435485e-05, 6.0014903283445165e-05, 9.9695593235082924e-05, 9.2705959104932845e-05, 8.0533289292361587e-05, 0.00017813750309869647, 5.3068000852363184e-05, 0.00015294866170734167, 7.6432675996329635e-05, 8.7615990196354687e-05, 0.00020319408213254064, 8.2704231317620724e-05, 6.3130704802460968e-05, 6.2473598518408835e-05, 0.00013782244059257209, 0.00051371549488976598, 7.8613898949697614e-05, 5.2594412409234792e-05, 7.9894911323208362e-05, 7.1364425821229815e-05, 0.00014090223703533411, 7.0439440605696291e-05, 8.6848827777430415e-05, 0.00016619816597085446, 0.00019123846141155809, 0.00011808177077909932, 0.00024820855469442904, 0.00013255684461910278, 6.684858090011403e-05, 4.1088245779974386e-05, 8.0005171184893698e-05, 8.7939835793804377e-05, 8.2073129306081682e-05, 6.5041873313020915e-05, 7.4553005106281489e-05, 0.00010538213973632082, 0.00010898268374148756, 0.00013487724936567247, 0.00023126574524212629, 7.0104506448842585e-05, 6.780020339647308e-05, 0.00021289018332026899, 0.00024931042571552098, 0.00017290626419708133, 0.00012153926945757121, } };
const TfArray<48, int> quant22_zero = { 48, { 0,0,0,0,0,0,0,0,0,0,0,0,0,0,0,0,0,0,0,0,0,0,0,0,0,0,0,0,0,0,0,0,0,0,0,0,0,0,0,0,0,0,0,0,0,0,0,0 } };
const TfLiteAffineQuantization quant22 = { (TfLiteFloatArray*)&quant22_scale, (TfLiteIntArray*)&quant22_zero, 0 };
const ALIGN(16) int8_t tensor_data23[1*3*3*48] = { 
  /* [0][0][][] */ 51,-66,-25,45,79,37,-71,-97,12,54,95,-72,-41,66,93,52,70,-79,60,72,-81,-75,44,99,-49,-23,86,72,102,72,-52,70,58,-74,-99,-84,66,-53,69,15,-84,63,39,-111,58,108,61,-58, 82,-83,-63,71,100,45,-68,-106,33,76,102,-98,-80,89,96,81,66,-101,58,98,-76,-109,67,111,-59,-57,116,95,114,127,-71,91,75,-91,-127,-84,86,-77,73,38,-111,72,39,-120,92,127,68,-82, 39,-39,-42,30,31,1,-20,-51,27,24,25,-29,-65,40,37,27,12,-18,26,18,-16,-74,30,32,-23,-8,50,35,56,52,-20,17,26,-67,-61,-57,28,-27,21,26,-38,49,5,-42,28,19,15,-39, 
  /* [0][1][][] */ 46,-93,-64,80,114,87,-117,-112,87,97,105,-86,-85,100,127,81,114,-94,42,111,-101,-126,82,115,-111,-82,118,101,113,99,-82,99,95,-127,-90,-127,85,-96,118,80,-102,101,96,-127,78,109,53,-77, 51,-127,-127,127,127,127,-127,-127,127,127,127,-127,-127,127,118,127,127,-127,59,127,-127,-127,127,127,-127,-127,127,127,127,118,-127,127,127,-120,-92,-122,127,-127,127,127,-127,127,127,-126,127,127,51,-127, -9,-70,-86,63,47,36,-60,-51,57,43,33,-53,-81,48,53,60,33,-26,27,29,-35,-86,61,58,-66,-14,20,51,70,35,-39,30,50,-110,-66,-51,47,-37,33,54,-27,63,33,-61,44,-7,16,-69, 
  /* [0][2][][] */ -40,-53,-47,47,41,40,-61,-31,-105,49,30,-54,-64,33,64,49,72,-20,-81,57,-27,-39,46,63,-70,-50,67,51,31,1,-53,35,58,-66,-19,-51,20,-36,47,74,-34,43,59,-77,35,7,-104,-26, -127,-71,-89,78,53,65,-77,-20,-81,62,51,-60,-102,46,51,70,80,-31,-127,71,-45,-72,70,58,-85,-35,53,56,36,1,-76,39,75,-95,-17,-62,35,-50,49,99,-27,49,104,-86,51,-11,-127,-69, -64,-23,-53,41,12,18,-5,-7,-96,23,22,-22,-49,23,26,42,22,-4,-65,32,-24,0,29,25,-34,8,10,23,8,12,-22,15,35,-32,-3,-8,2,-8,-1,40,-5,8,32,-19,13,-25,-55,-39, 
};
const TfArray<4, int> tensor_dimension23 = { 4, { 1,3,3,48 } };
const TfArray<48, float> quant23_scale = { 48, { 0.017440240830183029, 0.0045327120460569859, 0.0052695213817059994, 0.0048294728621840477, 0.0029152107890695333, 0.0048426915891468525, 0.0045031714253127575, 0.0039118868298828602, 0.0086529897525906563, 0.0025777665432542562, 0.007429447490721941, 0.0037127004470676184, 0.0042559276334941387, 0.0098701082170009613, 0.0040173400193452835, 0.0030665600206702948, 0.0030346412677317858, 0.0066946945153176785, 0.02495361864566803, 0.0038186528254300356, 0.0025547619443386793, 0.0038808777462691069, 0.0034665113780647516, 0.0068442951887845993, 0.0034215801861137152, 0.0042186626233160496, 0.0080730393528938293, 0.0092893661931157112, 0.0057357959449291229, 0.012056675739586353, 0.0064389198087155819, 0.0032471551094204187, 0.0019958524499088526, 0.0038862335495650768, 0.0042716581374406815, 0.0039866841398179531, 0.003159394720569253, 0.0036213959101587534, 0.0051189144141972065, 0.0052938098087906837, 0.0065516326576471329, 0.011233682744204998, 0.003405311144888401, 0.0032933799084275961, 0.010341093875467777, 0.012110198847949505, 0.0083988839760422707, 0.0059037432074546814, } };
const TfArray<48, int> quant23_zero = { 48, { 0,0,0,0,0,0,0,0,0,0,0,0,0,0,0,0,0,0,0,0,0,0,0,0,0,0,0,0,0,0,0,0,0,0,0,0,0,0,0,0,0,0,0,0,0,0,0,0 } };
const TfLiteAffineQuantization quant23 = { (TfLiteFloatArray*)&quant23_scale, (TfLiteIntArray*)&quant23_zero, 3 };
const ALIGN(16) int32_t tensor_data24[48] = { -2402, 8196, 6263, -1335, 32, 14619, 5644, 2616, 17551, 1865, -3718, 2295, 5462, 2694, -385, 1436, -2170, 10257, -4585, -1098, 1477, 1490, 505, -681, 167, 4033, -2613, -2321, -1145, -4030, 14136, 4429, 1076, 1384, 836, 2067, 1817, 12699, 1901, 775, 10602, -3105, 935, 1961, -2497, -3470, 18325, 4004, };
const TfArray<1, int> tensor_dimension24 = { 1, { 48 } };
const TfArray<48, float> quant24_scale = { 48, { 0.00021969157387502491, 0.00010656453378032893, 0.00012328886077739298, 0.00018428097246214747, 0.00042526700417511165, 5.975917520117946e-05, 0.00015533085388597101, 0.00016291224164888263, 5.9511152358027175e-05, 0.00029275845736265182, 0.00013192385085858405, 0.00020553279318846762, 0.00012035886174999177, 0.00017574013327248394, 0.00027351756580173969, 0.0001373657287331298, 0.00017807693802751601, 9.3777307483833283e-05, 0.00010494012531125918, 0.00026579608675092459, 0.00025963582447730005, 0.00018641185306478292, 0.00021709520660806447, 0.00017348265100736171, 0.00025659170933067799, 0.00013643155398312956, 0.00017187632329296321, 0.00013046141248196363, 0.00019848835654556751, 0.00010449217370478436, 7.9009143519215286e-05, 0.00014972932694945484, 0.0002302823995705694, 0.00024935507099144161, 0.00016296078683808446, 0.00018729172006715089, 0.00014842420932836831, 7.109057332854718e-05, 0.00024638086324557662, 0.00018353493942413479, 9.3682123406324536e-05, 8.9289751485921443e-05, 0.000247012241743505, 0.00020969875913579017, 0.00021493757958523929, 0.00013763671449851245, 5.9333760873414576e-05, 0.00013412682164926082, } };
const TfArray<48, int> quant24_zero = { 48, { 0,0,0,0,0,0,0,0,0,0,0,0,0,0,0,0,0,0,0,0,0,0,0,0,0,0,0,0,0,0,0,0,0,0,0,0,0,0,0,0,0,0,0,0,0,0,0,0 } };
const TfLiteAffineQuantization quant24 = { (TfLiteFloatArray*)&quant24_scale, (TfLiteIntArray*)&quant24_zero, 0 };
const ALIGN(16) int8_t tensor_data25[48*1*1*8] = { 
  /* [0][0][][] */ 39,25,-52,9,-37,49,-127,29, 
  /* [1][0][][] */ 3,-59,-121,-1,-10,-18,127,-108, 
  /* [2][0][][] */ -124,-54,-72,-53,-37,59,-127,-6, 
  /* [3][0][][] */ -56,-40,19,-11,-26,-127,-113,-17, 
  /* [4][0][][] */ -42,-127,-42,16,57,19,-42,-43, 
  /* [5][0][][] */ 73,-40,96,56,-127,58,-85,-105, 
  /* [6][0][][] */ 43,-127,-66,-31,-12,69,-43,-88, 
  /* [7][0][][] */ -29,-85,-62,-65,76,-127,1,25, 
  /* [8][0][][] */ 38,61,51,65,37,-55,-2,127, 
  /* [9][0][][] */ -27,-55,-52,9,42,-13,127,-12, 
  /* [10][0][][] */ -28,18,-127,21,22,24,107,-116, 
  /* [11][0][][] */ 7,-35,-34,2,-127,18,7,50, 
  /* [12][0][][] */ 90,60,-24,40,-74,127,74,-9, 
  /* [13][0][][] */ -50,-3,19,-22,44,-127,-6,72, 
  /* [14][0][][] */ -104,-52,10,38,11,69,-127,-125, 
  /* [15][0][][] */ 58,88,51,1,-127,47,117,-50, 
  /* [16][0][][] */ -2,-57,9,71,-9,-67,11,-127, 
  /* [17][0][][] */ -78,127,26,-13,-59,-52,-88,-81, 
  /* [18][0][][] */ 106,127,-84,-105,100,107,-98,-91, 
  /* [19][0][][] */ -29,80,-17,14,-127,4,-69,-99, 
  /* [20][0][][] */ -127,-5,8,10,21,22,108,48, 
  /* [21][0][][] */ -31,-3,52,13,-86,-108,-127,28, 
  /* [22][0][][] */ -4,-33,-49,-4,-127,5,8,56, 
  /* [23][0][][] */ 60,7,-18,-10,127,66,-82,77, 
  /* [24][0][][] */ 127,10,-47,26,-87,5,10,-8, 
  /* [25][0][][] */ 28,-67,57,104,-53,-127,24,110, 
  /* [26][0][][] */ 19,127,6,58,76,-17,18,-15, 
  /* [27][0][][] */ -122,112,59,-15,127,-68,-2,97, 
  /* [28][0][][] */ -73,-76,-58,-38,80,-127,18,-13, 
  /* [29][0][][] */ -57,-31,52,38,127,-101,-87,75, 
  /* [30][0][][] */ 127,48,-120,-107,-77,-95,-79,-66, 
  /* [31][0][][] */ 29,2,41,67,-127,11,38,3, 
  /* [32][0][][] */ 127,19,55,43,-38,-58,95,62, 
  /* [33][0][][] */ 127,32,-42,7,-113,-64,24,49, 
  /* [34][0][][] */ 44,-13,-19,21,-44,127,20,-78, 
  /* [35][0][][] */ 120,37,-20,-37,36,-101,28,127, 
  /* [36][0][][] */ -33,-48,76,-101,-29,-20,77,-127, 
  /* [37][0][][] */ 81,-69,62,48,118,-13,36,-127, 
  /* [38][0][][] */ 70,127,12,-29,-27,24,26,80, 
  /* [39][0][][] */ 27,5,-74,71,-23,-66,-82,127, 
  /* [40][0][][] */ -14,-32,-2,-30,24,-127,22,39, 
  /* [41][0][][] */ -30,49,-127,-71,92,125,70,-112, 
  /* [42][0][][] */ 27,-44,-41,16,77,127,32,57, 
  /* [43][0][][] */ -2,44,-24,29,-127,-79,52,-55, 
  /* [44][0][][] */ -127,-51,-10,-31,54,52,-108,-74, 
  /* [45][0][][] */ -66,63,-60,18,32,-2,-66,127, 
  /* [46][0][][] */ -25,58,127,-5,-55,-59,-48,40, 
  /* [47][0][][] */ -127,-110,-42,-57,100,106,-36,91, 
};
const TfArray<4, int> tensor_dimension25 = { 4, { 48,1,1,8 } };
const TfArray<48, float> quant25_scale = { 48, { 0.0032270781230181456, 0.0015653403243049979, 0.0018110061064362526, 0.0027069272473454475, 0.0062468023970723152, 0.00087781029287725687, 0.0022816751152276993, 0.0023930391762405634, 0.00087416707538068295, 0.0043003670871257782, 0.0019378466531634331, 0.0030190979596227407, 0.0017679670127108693, 0.002581469714641571, 0.0040177353657782078, 0.0020177830010652542, 0.0026157954707741737, 0.0013775071129202843, 0.0015414791414514184, 0.0039043135475367308, 0.0038138246163725853, 0.0027382280677556992, 0.0031889397650957108, 0.002548309275880456, 0.003769109258428216, 0.0020040608942508698, 0.0025247137527912855, 0.0019163646502420306, 0.0029156212694942951, 0.0015348991146311164, 0.0011605756590142846, 0.0021993936970829964, 0.0033826481085270643, 0.0036628090310841799, 0.0023937523365020752, 0.0027511524967849255, 0.0021802226547151804, 0.0010442587081342936, 0.0036191206891089678, 0.0026959686074405909, 0.0013761089649051428, 0.0013115887995809317, 0.0036283950321376324, 0.003080292372033, 0.0031572461593896151, 0.0020217637065798044, 0.00087156135123223066, 0.0019702063873410225, } };
const TfArray<48, int> quant25_zero = { 48, { 0,0,0,0,0,0,0,0,0,0,0,0,0,0,0,0,0,0,0,0,0,0,0,0,0,0,0,0,0,0,0,0,0,0,0,0,0,0,0,0,0,0,0,0,0,0,0,0 } };
const TfLiteAffineQuantization quant25 = { (TfLiteFloatArray*)&quant25_scale, (TfLiteIntArray*)&quant25_zero, 0 };
const ALIGN(16) int32_t tensor_data26[8] = { 10832, 14489, 4376, 4175, 1609, -13135, 6485, -7176, };
const TfArray<1, int> tensor_dimension26 = { 1, { 8 } };
const TfArray<8, float> quant26_scale = { 8, { 0.00013461524213198572, 0.00011812102457042783, 0.00013691683125216514, 0.00020648758800234646, 0.00011344372614985332, 0.00013175548519939184, 7.8049895819276571e-05, 0.00013148109428584576, } };
const TfArray<8, int> quant26_zero = { 8, { 0,0,0,0,0,0,0,0 } };
const TfLiteAffineQuantization quant26 = { (TfLiteFloatArray*)&quant26_scale, (TfLiteIntArray*)&quant26_zero, 0 };
const ALIGN(16) int8_t tensor_data27[8*1*1*48] = { 
  /* [0][0][][] */ 34,-50,100,68,29,-40,20,8,-2,53,-32,13,-46,-82,36,1,-103,64,-36,64,-46,66,2,-28,1,-45,68,-29,-24,21,-33,105,-59,-11,-35,-85,-59,-46,-37,-14,-11,57,-127,11,57,24,24,49, 
  /* [1][0][][] */ -54,-35,63,-5,-29,31,-38,-32,48,-12,-1,-32,-18,13,0,18,2,22,13,-9,-59,-31,-72,-26,26,-38,-28,-35,25,-70,-10,-127,-4,-57,-65,-70,-39,-87,-21,21,40,-16,85,-103,-49,-13,-23,-7, 
  /* [2][0][][] */ -60,96,-4,38,13,11,18,-41,75,-48,72,88,101,13,35,-58,97,3,5,33,-10,18,18,127,-111,-46,10,-23,2,89,-22,-88,-18,2,8,-82,-28,7,-40,-16,91,-87,27,-2,31,-123,0,-17, 
  /* [3][0][][] */ 59,-21,-58,32,82,-82,1,-118,-31,-8,-55,-84,-24,127,-14,16,-41,-17,-67,-46,30,78,-9,-52,113,43,54,-70,32,-92,50,-62,57,62,108,-76,-47,17,-27,43,24,83,-74,31,1,28,8,34, 
  /* [4][0][][] */ -49,33,-40,65,89,-29,26,-45,-37,-8,-58,35,-47,-18,6,-57,8,59,-34,-36,-43,37,-68,-65,22,-12,22,-35,33,-33,-31,62,-8,73,-65,-76,-64,-64,-36,1,66,-54,127,24,-2,83,-55,-49, 
  /* [5][0][][] */ 52,7,83,-7,-5,18,53,35,127,-3,70,0,72,57,27,-63,-13,32,33,-47,-58,-70,13,43,22,-12,30,42,-39,-29,16,-19,-22,52,-21,57,50,1,-29,-47,-8,68,33,41,-16,-7,73,5, 
  /* [6][0][][] */ -9,-71,-16,16,40,-9,-3,14,-45,-18,108,55,102,73,-38,51,126,-127,-20,-4,-14,-48,-102,37,-80,75,-33,-2,-18,-56,72,-52,101,13,-80,-23,-41,6,61,13,79,-71,-2,-80,-108,47,-46,22, 
  /* [7][0][][] */ -16,-28,-58,-31,21,104,-3,-5,-5,-53,-127,-103,44,55,-60,-49,-34,23,105,21,-17,-79,60,-13,112,-30,-75,90,-43,-11,-25,-82,-47,69,49,118,93,-60,-20,-37,-23,-6,41,-16,-1,-23,5,-57, 
};
const TfArray<4, int> tensor_dimension27 = { 4, { 8,1,1,48 } };
const TfArray<8, float> quant27_scale = { 8, { 0.0057211476378142834, 0.0050201434642076492, 0.0058189653791487217, 0.0087757222354412079, 0.004821358248591423, 0.0055996077135205269, 0.0033171204850077629, 0.0055879466235637665, } };
const TfArray<8, int> quant27_zero = { 8, { 0,0,0,0,0,0,0,0 } };
const TfLiteAffineQuantization quant27 = { (TfLiteFloatArray*)&quant27_scale, (TfLiteIntArray*)&quant27_zero, 0 };
const ALIGN(16) int32_t tensor_data28[48] = { -1014, 982, 602, 452, 115, 8314, -340, -3445, -5303, -803, -6969, 657, -3441, -6539, -1247, -521, -7703, 14197, -3689, 192, -943, 100, -1733, -14, 19845, -210, 61, -1150, -19, 132, 299, -8045, 139, 12058, 173, 7600, -510, -2738, -376, 158, -3465, -565, 3275, 6076, 374, 7307, -241, -2131, };
const TfArray<1, int> tensor_dimension28 = { 1, { 48 } };
const TfArray<48, float> quant28_scale = { 48, { 0.00031372229568660259, 0.00011844209802802652, 0.0004484546952880919, 0.00012412082287482917, 0.00014600210124626756, 0.00028050492983311415, 0.00026372852153144777, 0.00017190657672472298, 0.00033398831146769226, 0.00013280485291033983, 0.00040743706631474197, 0.00019415990391280502, 0.00013707100879400969, 0.00015499861910939217, 0.00013114151079207659, 0.00045773581950925291, 0.00031632528407499194, 0.00010488148836884648, 0.00011192199599463493, 0.00040124042425304651, 0.00030508229974657297, 0.00035432056756690145, 0.0001796431461116299, 0.0006750350003130734, 0.00019331138173583895, 0.00030083340243436396, 0.00017296159057877958, 0.00013069325359538198, 0.00022575409093406051, 0.00015648893895559013, 0.00046050487435422838, 0.00049605220556259155, 0.00043252791510894895, 0.00012486591003835201, 0.0005633416585624218, 0.00016778125427663326, 0.00018522726895753294, 9.0195630036760122e-05, 0.00049592176219448447, 0.00071760290302336216, 0.00024150167882908136, 0.00064426177414134145, 0.00056146364659070969, 0.00016793626127764583, 0.00021598335297312587, 0.00013247269089333713, 0.00019926097593270242, 0.00025727614411152899, } };
const TfArray<48, int> quant28_zero = { 48, { 0,0,0,0,0,0,0,0,0,0,0,0,0,0,0,0,0,0,0,0,0,0,0,0,0,0,0,0,0,0,0,0,0,0,0,0,0,0,0,0,0,0,0,0,0,0,0,0 } };
const TfLiteAffineQuantization quant28 = { (TfLiteFloatArray*)&quant28_scale, (TfLiteIntArray*)&quant28_zero, 0 };
const ALIGN(16) int8_t tensor_data29[1*3*3*48] = { 
  /* [0][0][][] */ -7,-39,38,-32,127,-2,-13,-11,-36,42,-10,9,58,20,127,-38,12,-23,-26,-18,-28,-21,-63,25,-127,47,23,-41,-13,23,-18,-5,-33,36,17,4,88,55,33,-7,71,15,-13,-6,-101,-8,-40,-38, 3,-92,-72,-33,-51,-5,34,19,15,-3,62,127,-15,58,-61,127,-6,-63,44,-54,-73,-127,-78,77,-125,-83,18,123,15,38,126,11,-127,-106,-51,38,127,-90,121,11,53,-10,-21,-16,-53,-13,70,1, 13,-15,-14,127,48,8,-82,-1,-26,-43,-23,-22,44,2,-53,-44,21,16,-4,-13,0,0,-27,15,-52,-62,-28,39,2,34,-89,-5,13,79,16,20,3,74,-127,0,29,-5,-8,23,-127,1,-56,45, 
  /* [0][1][][] */ -114,-59,127,-9,-45,-33,74,21,16,94,9,16,43,32,105,32,30,-127,101,39,84,-10,50,-39,-15,-18,34,-49,21,55,36,53,34,-101,2,127,12,48,-42,-115,29,90,-19,-87,28,-86,-61,20, 127,-59,-70,-77,1,-127,127,127,127,17,127,-41,-127,28,-32,-41,127,-100,127,127,127,82,127,-127,5,-24,104,-22,127,127,-127,127,28,-127,127,-96,-67,127,-100,121,-127,-127,127,-127,102,-127,127,-123, -10,-101,13,73,-26,-10,-48,9,-15,-127,-33,47,71,16,-50,46,25,-8,-2,13,-4,-21,42,-21,-3,10,-127,81,-69,12,83,20,-14,-103,-19,-39,64,14,122,9,30,52,-44,4,55,-24,-56,127, 
  /* [0][2][][] */ -4,123,29,-34,81,16,-44,-13,-32,18,-6,-3,56,18,83,7,-17,3,-1,-48,-13,9,1,12,-29,-14,28,5,-54,-109,-10,-1,-6,46,-19,35,-56,42,15,101,13,20,-2,5,17,2,-19,-40, 3,97,-44,15,31,-32,1,33,33,12,26,-38,39,127,-70,-78,-1,-23,110,-81,-47,76,1,51,66,127,5,127,-70,-112,-21,0,89,-122,-87,3,-67,-44,-27,-127,52,-20,-55,75,47,24,18,10, 16,127,-13,31,30,10,-62,-3,-22,-19,-3,-10,55,-3,-63,-1,-8,1,-30,-27,-12,7,-1,3,-52,31,-44,15,38,-77,16,3,5,55,0,-16,-43,52,11,-2,-25,-4,2,-19,11,7,-1,34, 
};
const TfArray<4, int> tensor_dimension29 = { 4, { 1,3,3,48 } };
const TfArray<48, float> quant29_scale = { 48, { 0.013333197683095932, 0.0050337892025709152, 0.019059324637055397, 0.0052751349285244942, 0.0062050889246165752, 0.011921458877623081, 0.011208461597561836, 0.0073060290887951851, 0.014194503426551819, 0.0056442059576511383, 0.017316075041890144, 0.0082517955452203751, 0.0058255176991224289, 0.0065874410793185234, 0.0055735139176249504, 0.019453771412372589, 0.013443824835121632, 0.0044574630446732044, 0.0047566848807036877, 0.017052717506885529, 0.01296599768102169, 0.015058623626828194, 0.0076348334550857544, 0.028688985854387283, 0.0082157338038086891, 0.012785419821739197, 0.0073508676141500473, 0.0055544632486999035, 0.0095945484936237335, 0.0066507798619568348, 0.019571457058191299, 0.021082218736410141, 0.018382435664534569, 0.0053068008273839951, 0.023942019790410995, 0.0071307029575109482, 0.0078721586614847183, 0.0038333141710609198, 0.02107667364180088, 0.030498122796416283, 0.010263821110129356, 0.027381123974919319, 0.023862205445766449, 0.0071372906677424908, 0.0091792922466993332, 0.0056300889700651169, 0.00846859160810709, 0.010934235528111458, } };
const TfArray<48, int> quant29_zero = { 48, { 0,0,0,0,0,0,0,0,0,0,0,0,0,0,0,0,0,0,0,0,0,0,0,0,0,0,0,0,0,0,0,0,0,0,0,0,0,0,0,0,0,0,0,0,0,0,0,0 } };
const TfLiteAffineQuantization quant29 = { (TfLiteFloatArray*)&quant29_scale, (TfLiteIntArray*)&quant29_zero, 3 };
const ALIGN(16) int32_t tensor_data30[48] = { 8537, 3490, 47078, -3901, -2084, 8465, -1048, 1348, 4019, 82, 10170, 709, 3449, 5716, 3933, 6690, 4172, 3739, -1164, 8609, 2120, 566, 1804, 18942, 47286, 6237, 5735, -2025, -125, 9280, 11260, 15615, 17834, 6674, 12119, -1523, 777, 3443, 11816, 10510, 919, 24021, 22814, 5823, 10295, 2901, 5705, 1214, };
const TfArray<1, int> tensor_dimension30 = { 1, { 48 } };
const TfArray<48, float> quant30_scale = { 48, { 0.00010008894605562091, 0.00015013046504464, 2.734067129495088e-05, 0.00013196442159824073, 0.00019631980103440583, 0.00012290115409996361, 0.00016204558778554201, 0.00040742178680375218, 0.00016020968905650079, 0.0001616571971680969, 8.5026658780407161e-05, 0.00022399341105483472, 0.00014666773495264351, 0.00013334599498193711, 0.00013502304500434548, 0.00011975732195423916, 0.00011922190606128424, 0.00013889888941776007, 0.00023497809888795018, 0.00010331589874112979, 0.00017273980483878404, 0.00020774357835762203, 0.00016500291530974209, 5.1479546527843922e-05, 3.3426964364480227e-05, 0.00013555320037994534, 0.00013904694060329348, 0.00018821144476532936, 0.00039731292054057121, 9.1621812316589057e-05, 8.04460360086523e-05, 6.3114268414210528e-05, 5.5946722568478435e-05, 0.00012798869283869863, 7.6061245636083186e-05, 0.00013576334458775818, 0.00018890578940045089, 0.00012789200991392136, 7.4827585194725543e-05, 8.5892701463308185e-05, 0.00015352043556049466, 4.2848678276641294e-05, 5.0485145038692281e-05, 0.00013569797738455236, 9.1310888819862157e-05, 0.00021744871628470719, 0.00013553581084124744, 0.00016645726282149553, } };
const TfArray<48, int> quant30_zero = { 48, { 0,0,0,0,0,0,0,0,0,0,0,0,0,0,0,0,0,0,0,0,0,0,0,0,0,0,0,0,0,0,0,0,0,0,0,0,0,0,0,0,0,0,0,0,0,0,0,0 } };
const TfLiteAffineQuantization quant30 = { (TfLiteFloatArray*)&quant30_scale, (TfLiteIntArray*)&quant30_zero, 0 };
const ALIGN(16) int8_t tensor_data31[48*1*1*8] = { 
  /* [0][0][][] */ -16,31,13,-127,-96,5,26,114, 
  /* [1][0][][] */ 104,8,-15,-5,-85,52,127,22, 
  /* [2][0][][] */ -9,117,-38,-32,-33,88,-51,-127, 
  /* [3][0][][] */ 66,-76,-89,121,-127,-46,-6,-27, 
  /* [4][0][][] */ 36,-59,46,-18,-127,-2,48,28, 
  /* [5][0][][] */ -18,50,-8,-94,-127,-7,-33,11, 
  /* [6][0][][] */ 43,-13,40,26,127,-28,-12,-114, 
  /* [7][0][][] */ 17,31,23,127,25,-8,-5,20, 
  /* [8][0][][] */ 21,24,15,-48,37,127,14,-31, 
  /* [9][0][][] */ 118,27,-8,19,-59,-55,127,79, 
  /* [10][0][][] */ 3,67,-71,-33,3,127,81,-58, 
  /* [11][0][][] */ -20,-40,-127,104,-62,25,-17,81, 
  /* [12][0][][] */ -96,-83,55,50,28,-127,-41,8, 
  /* [13][0][][] */ 42,33,35,54,-60,127,16,-41, 
  /* [14][0][][] */ 10,-101,7,-1,-60,-80,-127,105, 
  /* [15][0][][] */ -84,41,-10,0,95,-5,-127,-48, 
  /* [16][0][][] */ 88,76,-101,-127,56,121,104,40, 
  /* [17][0][][] */ -105,126,-127,45,-14,-26,25,-118, 
  /* [18][0][][] */ 36,-3,-93,127,-11,-34,-38,-60, 
  /* [19][0][][] */ 116,15,6,25,-39,11,127,53, 
  /* [20][0][][] */ 43,-72,-90,127,46,-26,-22,-61, 
  /* [21][0][][] */ 23,52,127,-103,42,-24,30,-103, 
  /* [22][0][][] */ -82,-33,-127,58,-30,34,10,113, 
  /* [23][0][][] */ 79,32,34,38,-127,119,63,-50, 
  /* [24][0][][] */ -8,-3,-127,86,-43,26,46,72, 
  /* [25][0][][] */ 47,-35,-67,127,45,-5,-33,-15, 
  /* [26][0][][] */ -77,22,127,-94,-16,30,63,-10, 
  /* [27][0][][] */ -67,79,127,1,18,-10,75,16, 
  /* [28][0][][] */ -57,-103,42,-127,-16,8,-7,-21, 
  /* [29][0][][] */ -76,-82,-16,93,-4,-127,-18,60, 
  /* [30][0][][] */ -127,50,118,-36,47,44,66,24, 
  /* [31][0][][] */ -60,50,85,-127,-43,16,32,61, 
  /* [32][0][][] */ -79,82,94,-101,6,-2,7,127, 
  /* [33][0][][] */ 7,108,-46,49,24,15,-127,-29, 
  /* [34][0][][] */ 90,19,127,-113,-98,-117,52,-50, 
  /* [35][0][][] */ 86,-1,26,101,74,-63,30,-127, 
  /* [36][0][][] */ 26,69,127,-108,25,-22,46,-118, 
  /* [37][0][][] */ -51,-49,102,63,3,-127,87,-13, 
  /* [38][0][][] */ 76,-3,75,35,-25,-48,127,15, 
  /* [39][0][][] */ 50,-76,-25,10,-127,6,77,62, 
  /* [40][0][][] */ -38,41,-127,103,-48,53,-85,118, 
  /* [41][0][][] */ -117,-15,-51,-5,127,19,-95,18, 
  /* [42][0][][] */ -87,63,-22,-33,127,34,-117,-50, 
  /* [43][0][][] */ 127,114,-35,119,-6,-91,58,70, 
  /* [44][0][][] */ 0,22,97,0,46,-127,24,-33, 
  /* [45][0][][] */ -9,-81,127,78,-30,-21,-121,19, 
  /* [46][0][][] */ 45,-118,-127,56,-84,27,-7,-15, 
  /* [47][0][][] */ -105,-27,44,-6,77,37,-127,-38, 
};
const TfArray<4, int> tensor_dimension31 = { 4, { 48,1,1,8 } };
const TfArray<48, float> quant31_scale = { 48, { 0.0026178306434303522, 0.0039266687817871571, 0.00071509642293676734, 0.0034515352454036474, 0.0051347529515624046, 0.0032144850119948387, 0.0042383093386888504, 0.010656134225428104, 0.0041902912780642509, 0.0042281509377062321, 0.0022238758392632008, 0.0058585572987794876, 0.0038361009210348129, 0.0034876700956374407, 0.0035315335262566805, 0.0031322578433901072, 0.0031182540114969015, 0.0036329065915197134, 0.0061458623968064785, 0.00270223175175488, 0.0045180171728134155, 0.005433542188256979, 0.0043156584724783897, 0.0013464497169479728, 0.00087428366532549262, 0.0035453997552394867, 0.0036367785651236773, 0.0049226782284677029, 0.010391736403107643, 0.0023963723797351122, 0.002104069571942091, 0.0016507563414052129, 0.0014632889069616795, 0.0033475495874881744, 0.001989385113120079, 0.0035508961882442236, 0.0049408390186727047, 0.0033450208138674498, 0.0019571187440305948, 0.0022465272340923548, 0.0040153334848582745, 0.0011207089992240071, 0.0013204411370679736, 0.0035491862799972296, 0.0023882403038442135, 0.00568738067522645, 0.003544944804161787, 0.004353696946054697, } };
const TfArray<48, int> quant31_zero = { 48, { 0,0,0,0,0,0,0,0,0,0,0,0,0,0,0,0,0,0,0,0,0,0,0,0,0,0,0,0,0,0,0,0,0,0,0,0,0,0,0,0,0,0,0,0,0,0,0,0 } };
const TfLiteAffineQuantization quant31 = { (TfLiteFloatArray*)&quant31_scale, (TfLiteIntArray*)&quant31_zero, 0 };
const ALIGN(16) int32_t tensor_data32[8] = { -11816, 2057, -15305, 40, 2752, -2388, 9438, 1011, };
const TfArray<1, int> tensor_dimension32 = { 1, { 8 } };
const TfArray<8, float> quant32_scale = { 8, { 0.00019097088079433888, 0.00013439862232189626, 0.00010583447146927938, 6.5991778683383018e-05, 0.00018570484826341271, 0.00013880217738915235, 0.00016696559032425284, 0.00011407538113417104, } };
const TfArray<8, int> quant32_zero = { 8, { 0,0,0,0,0,0,0,0 } };
const TfLiteAffineQuantization quant32 = { (TfLiteFloatArray*)&quant32_scale, (TfLiteIntArray*)&quant32_zero, 0 };
const ALIGN(16) int8_t tensor_data33[8*1*1*48] = { 
  /* [0][0][][] */ 49,103,-40,72,-5,-7,-23,9,63,-64,4,-28,9,9,-35,-52,2,-21,32,17,-56,-31,-34,10,17,13,24,-2,16,11,-23,27,-62,14,115,-127,-21,23,-11,115,-31,14,15,-2,-14,38,27,-43, 
  /* [1][0][][] */ 3,-45,33,53,-13,-15,-17,-21,45,-45,93,43,18,12,-47,-79,127,39,18,9,-71,32,37,-13,-50,-93,-34,-48,-14,-61,41,-41,-8,-20,-28,13,7,-21,83,-48,-15,31,-57,36,76,63,17,48, 
  /* [2][0][][] */ 74,-29,-14,-16,106,105,62,74,-31,-7,-1,-32,-8,43,61,31,-25,-35,56,-64,-39,-50,-45,61,-93,-92,113,17,61,-63,-62,19,-127,81,103,17,-11,-2,-7,18,24,68,14,-63,-21,18,54,-46, 
  /* [3][0][][] */ 82,-31,13,-10,116,122,24,48,-34,-28,26,56,-127,42,65,20,4,13,77,-111,-95,19,36,91,8,-31,56,30,46,-58,3,-9,-113,65,-60,-117,26,-39,66,-50,53,-94,-106,-26,-62,41,-16,65, 
  /* [4][0][][] */ 38,41,-27,-38,-10,-10,-19,-17,3,-4,-10,-14,-32,-21,61,53,-39,-18,-35,45,29,-13,-15,3,-49,-41,-7,56,-12,12,-23,26,-32,-17,25,-127,-9,26,12,53,7,-12,-9,-24,43,3,88,-23, 
  /* [5][0][][] */ 70,57,-91,50,7,8,-6,28,-87,-64,-63,-23,36,20,42,28,41,-66,43,127,-75,-49,-57,53,34,-24,-35,68,34,30,-59,3,-2,0,-59,1,-8,16,-25,69,18,80,-5,-44,125,32,18,-62, 
  /* [6][0][][] */ -30,-75,18,-45,-46,-43,-83,-76,-34,-63,-117,42,-57,-50,97,92,-127,9,25,-18,16,58,71,13,-9,-9,-75,90,-85,-40,45,78,16,-55,91,41,28,47,-9,-86,-14,-62,-28,17,-43,-18,-9,66, 
  /* [7][0][][] */ 75,17,-19,42,12,14,10,4,81,-9,-14,-18,56,7,-12,-23,-51,-7,-30,3,1,-21,-22,-25,69,-127,16,-2,-1,96,-18,18,-72,24,-58,-45,-14,26,28,25,24,67,-36,-18,-43,28,40,-25, 
};
const TfArray<4, int> tensor_dimension33 = { 4, { 8,1,1,48 } };
const TfArray<8, float> quant33_scale = { 8, { 0.0081162620335817337, 0.0057119410485029221, 0.0044979648664593697, 0.002804650692269206, 0.0078924559056758881, 0.005899092648178339, 0.0070960377342998981, 0.0048482036218047142, } };
const TfArray<8, int> quant33_zero = { 8, { 0,0,0,0,0,0,0,0 } };
const TfLiteAffineQuantization quant33 = { (TfLiteFloatArray*)&quant33_scale, (TfLiteIntArray*)&quant33_zero, 0 };
const ALIGN(16) int32_t tensor_data34[48] = { 1181, 6949, -484, -136, 706, 718, 6612, 8093, 697, -5600, -274, 375, 6337, 4296, 19991, 17049, -1940, -1075, 5057, 5885, 17136, 134, -548, -142, 4232, 1554, 3888, 19408, 6936, 12766, -271, 2558, -933, -3548, 1228, 2678, -143, 649, 44, 3428, 3647, 4043, -5546, 665, -1515, -174, 10085, -653, };
const TfArray<1, int> tensor_dimension34 = { 1, { 48 } };
const TfArray<48, float> quant34_scale = { 48, { 0.00010708040645113215, 0.00013186712749302387, 0.00053153181215748191, 7.3152339609805495e-05, 0.00061247049598023295, 0.00065708451438695192, 0.00013616777141578496, 0.00015689575229771435, 6.7298453359398991e-05, 0.00029787223320454359, 0.00056026439415290952, 0.00031202967511489987, 0.00021724453836213797, 0.00012847651669289917, 6.5096457547042519e-05, 5.7609337090980262e-05, 0.00014317514433059841, 0.00057860463857650757, 5.642855103360489e-05, 9.1653266281355172e-05, 6.1921447922941297e-05, 0.0009758753003552556, 0.0012829373590648174, 0.00027244340162724257, 5.9230806073173881e-05, 0.00013427289377432317, 9.3939197540748864e-05, 0.00015360354154836386, 0.00015595585864502937, 0.00013371942623052746, 0.00062157423235476017, 0.00023369932023342699, 0.00011506188457133248, 0.00025273908977396786, 6.6423635871615261e-05, 6.9444591645151377e-05, 0.00039159308653324842, 0.00033002547570504248, 0.00012257788330316544, 0.00017498810484539717, 9.3022470537107438e-05, 0.00019714530208148062, 0.00013017085439059883, 0.00045205224887467921, 7.7323602454271168e-05, 0.00020491339091677219, 6.8114735768176615e-05, 0.00078938668593764305, } };
const TfArray<48, int> quant34_zero = { 48, { 0,0,0,0,0,0,0,0,0,0,0,0,0,0,0,0,0,0,0,0,0,0,0,0,0,0,0,0,0,0,0,0,0,0,0,0,0,0,0,0,0,0,0,0,0,0,0,0 } };
const TfLiteAffineQuantization quant34 = { (TfLiteFloatArray*)&quant34_scale, (TfLiteIntArray*)&quant34_zero, 0 };
const ALIGN(16) int8_t tensor_data35[1*3*3*48] = { 
  /* [0][0][][] */ -16,-85,-104,79,-87,2,-88,-81,53,81,104,-42,0,7,-77,-62,88,-86,32,-50,-14,-109,-39,-77,86,96,3,-126,0,-41,56,79,44,68,75,17,87,80,32,14,-123,-15,18,41,-41,63,-30,-94, 90,-5,41,74,-127,41,-53,8,94,127,124,64,-11,-71,-127,-108,111,-38,105,-82,-106,127,127,32,127,91,50,-109,-86,-57,-102,109,90,127,109,101,-17,71,61,-70,-90,-87,5,-54,-57,113,-39,106, 100,-3,62,58,-79,12,-32,-12,21,92,15,-31,-79,0,-39,-48,30,85,60,-14,-60,-24,-82,74,47,24,27,-47,-6,-46,26,46,45,92,14,68,-1,14,41,-8,-59,-6,-4,11,-20,89,-14,-2, 
  /* [0][1][][] */ 45,-127,121,91,86,-72,-127,-127,114,75,104,-50,3,-4,-100,-92,95,127,47,-109,-38,111,32,-127,98,118,107,-127,-6,-113,-70,97,102,-3,103,52,30,119,59,3,-9,-25,90,97,-110,111,-107,115, 127,-6,6,127,119,-127,-91,4,127,126,127,61,-30,-127,-118,-127,127,61,127,-127,-127,-125,-106,44,104,127,127,-115,-127,-127,127,127,127,1,127,127,-3,127,127,-127,9,-127,124,-81,-127,127,-117,-127, 93,-5,-127,65,85,-60,-40,-10,24,76,28,-18,-127,-2,-27,-30,37,-100,75,-36,-77,9,78,70,56,42,3,-56,-17,-90,-33,36,48,-7,23,75,3,17,70,-3,-23,-7,39,-9,-71,65,-48,15, 
  /* [0][2][][] */ 64,-75,9,24,-1,65,-73,-78,31,11,27,58,8,5,-41,-27,23,-41,16,-65,-13,0,15,-80,23,36,65,-15,7,-106,14,22,67,-83,66,19,-127,23,6,2,29,-9,87,-127,-72,40,-83,-8, 49,9,8,51,8,91,-29,-2,23,57,22,-127,-10,-84,-39,-38,41,-13,43,-87,-36,-12,-25,26,24,51,69,-36,-82,-116,-23,23,67,-90,62,30,21,35,62,-50,127,-62,127,104,-106,42,-127,20, -33,-8,-4,34,-19,39,-20,-3,6,28,-31,45,-64,-2,-11,1,1,25,28,-5,-40,21,17,33,27,23,18,0,-7,-61,14,-9,8,-49,11,20,9,-15,38,11,64,3,23,-12,-26,27,-32,-1, 
};
const TfArray<4, int> tensor_dimension35 = { 4, { 1,3,3,48 } };
const TfArray<48, float> quant35_scale = { 48, { 0.0045509170740842819, 0.0056043528020381927, 0.022590100765228271, 0.0031089743133634329, 0.026029994711279869, 0.027926091104745865, 0.0057871304452419281, 0.0066680693998932838, 0.0028601842932403088, 0.012659570202231407, 0.023811236023902893, 0.013261260464787483, 0.0092328926548361778, 0.0054602520540356636, 0.0027665994130074978, 0.0024483967572450638, 0.0060849436558783054, 0.024590697139501572, 0.0023982133716344833, 0.0038952638860791922, 0.002631661482155323, 0.041474699974060059, 0.054524835199117661, 0.011578844860196114, 0.0025173092726618052, 0.0057065975852310658, 0.0039924159646034241, 0.0065281502902507782, 0.006628123577684164, 0.0056830756366252899, 0.026416903361678123, 0.0099322209134697914, 0.0048901299014687538, 0.010741410776972771, 0.0028230044990777969, 0.0029513949993997812, 0.016642706468701363, 0.014026082120835781, 0.005209560040384531, 0.0074369944632053375, 0.0039534550160169601, 0.0083786752074956894, 0.0055322614498436451, 0.01921221986413002, 0.0032862529624253511, 0.0087088188156485558, 0.0028948760591447353, 0.033548932522535324, } };
const TfArray<48, int> quant35_zero = { 48, { 0,0,0,0,0,0,0,0,0,0,0,0,0,0,0,0,0,0,0,0,0,0,0,0,0,0,0,0,0,0,0,0,0,0,0,0,0,0,0,0,0,0,0,0,0,0,0,0 } };
const TfLiteAffineQuantization quant35 = { (TfLiteFloatArray*)&quant35_scale, (TfLiteIntArray*)&quant35_zero, 3 };
const ALIGN(16) int32_t tensor_data36[48] = { 12684, 5422, 11128, 2849, 5040, 4985, -4728, 4865, 3081, -3217, -3642, 5951, -3832, -5569, 9388, 1957, -2308, 2934, -1970, 3608, 515, 4777, -468, -3084, -424, -5701, 3007, -4211, 4331, 8921, 800, 503, 8601, 12521, 8768, 5243, 6435, -5087, 1368, 5426, -722, -5246, 4695, 2992, 315, -7099, -13730, 2348, };
const TfArray<1, int> tensor_dimension36 = { 1, { 48 } };
const TfArray<48, float> quant36_scale = { 48, { 0.00035206408938392997, 0.00050129293231293559, 9.3827271484769881e-05, 0.00069059006636962295, 0.00039044153527356684, 0.00036820690729655325, 0.0017732107080519199, 0.0010311916703358293, 0.0010854046558961272, 0.00046879166620783508, 0.00011995509703410789, 0.00045098722330294549, 0.00040232384344562888, 0.00089042948093265295, 0.00045073419460095465, 0.0016370812663808465, 0.0010111129377037287, 0.00025954234297387302, 0.0010232307249680161, 0.0015958476578816772, 0.00063254236010834575, 0.00041014159796759486, 0.00012936739949509501, 0.00039538755663670599, 0.0010707644978538156, 0.00068608741275966167, 0.00085867888992652297, 0.00035639575798995793, 0.00093151262262836099, 0.00059993064496666193, 0.00024292297894135118, 0.00044139873352833092, 0.00067884766031056643, 0.00023112910275813192, 0.00044448534026741982, 0.00031730439513921738, 0.00044625348527915776, 0.0014997882535681129, 0.00048125596367754042, 0.00051679729949682951, 0.0010904218070209026, 0.00053916918113827705, 0.00065369572257623076, 0.00016751943621784449, 0.0012410436756908894, 0.00069854524917900562, 0.00062894338043406606, 0.00038856835453771055, } };
const TfArray<48, int> quant36_zero = { 48, { 0,0,0,0,0,0,0,0,0,0,0,0,0,0,0,0,0,0,0,0,0,0,0,0,0,0,0,0,0,0,0,0,0,0,0,0,0,0,0,0,0,0,0,0,0,0,0,0 } };
const TfLiteAffineQuantization quant36 = { (TfLiteFloatArray*)&quant36_scale, (TfLiteIntArray*)&quant36_zero, 0 };
const ALIGN(16) int8_t tensor_data37[48*1*1*8] = { 
  /* [0][0][][] */ -101,-104,25,-127,-58,-5,-4,-4, 
  /* [1][0][][] */ -127,-13,98,1,-50,21,5,15, 
  /* [2][0][][] */ 24,-15,18,127,26,-23,-15,-6, 
  /* [3][0][][] */ -108,-73,-26,-17,38,127,-48,-33, 
  /* [4][0][][] */ -8,-33,-9,-4,-10,10,-127,-72, 
  /* [5][0][][] */ -4,-33,-14,-3,-11,11,-127,-72, 
  /* [6][0][][] */ 127,6,16,-9,-66,16,3,-6, 
  /* [7][0][][] */ -127,-29,-14,6,67,11,-1,9, 
  /* [8][0][][] */ 22,40,-11,-10,-29,-127,39,18, 
  /* [9][0][][] */ 75,23,-15,-8,-22,-1,-6,127, 
  /* [10][0][][] */ 118,-11,-124,6,-89,-7,43,127, 
  /* [11][0][][] */ -127,97,2,-39,79,-66,4,27, 
  /* [12][0][][] */ 127,-35,-107,15,51,-5,-11,-19, 
  /* [13][0][][] */ 127,12,17,-10,-29,24,10,-15, 
  /* [14][0][][] */ -123,-84,100,-29,75,-18,-41,-127, 
  /* [15][0][][] */ 34,72,0,-5,-10,-127,-20,10, 
  /* [16][0][][] */ -10,-66,11,3,11,127,11,7, 
  /* [17][0][][] */ 32,-127,-72,-6,-35,122,-55,-16, 
  /* [18][0][][] */ 38,-20,-14,-17,-21,25,127,-12, 
  /* [19][0][][] */ -6,24,-3,-127,-10,35,-3,-11, 
  /* [20][0][][] */ -78,-34,75,8,57,99,-4,-127, 
  /* [21][0][][] */ -19,-7,34,-26,-17,13,-127,-85, 
  /* [22][0][][] */ 76,-9,10,127,-15,-10,61,38, 
  /* [23][0][][] */ 127,-16,-121,-9,29,-22,6,10, 
  /* [24][0][][] */ -32,24,26,35,10,3,-127,-84, 
  /* [25][0][][] */ 127,12,-87,7,14,-6,6,26, 
  /* [26][0][][] */ 1,54,-33,-127,-26,24,1,0, 
  /* [27][0][][] */ 127,23,-108,-6,-109,46,20,84, 
  /* [28][0][][] */ -127,-22,-19,18,52,8,-1,30, 
  /* [29][0][][] */ -8,-127,-16,-125,-9,26,-14,-23, 
  /* [30][0][][] */ -3,91,127,34,33,-105,108,38, 
  /* [31][0][][] */ -79,-8,-127,46,-1,-26,98,102, 
  /* [32][0][][] */ -3,-120,0,-127,-11,12,-11,-18, 
  /* [33][0][][] */ 17,-127,-6,-127,9,13,1,-24, 
  /* [34][0][][] */ -28,-52,32,-92,37,-55,127,77, 
  /* [35][0][][] */ -127,13,50,3,-108,-20,29,97, 
  /* [36][0][][] */ -127,13,114,-4,-46,20,-34,36, 
  /* [37][0][][] */ 127,11,-5,-6,-75,19,-1,17, 
  /* [38][0][][] */ -74,-3,78,34,60,-57,44,127, 
  /* [39][0][][] */ -127,-4,73,0,-72,12,-10,7, 
  /* [40][0][][] */ -7,22,44,-18,24,-4,127,49, 
  /* [41][0][][] */ 127,-12,-74,5,52,12,6,-7, 
  /* [42][0][][] */ -13,-127,33,-8,16,8,-6,-18, 
  /* [43][0][][] */ 9,125,127,-11,58,-108,78,7, 
  /* [44][0][][] */ 6,-13,-3,117,0,-127,-2,3, 
  /* [45][0][][] */ 127,-33,35,-9,-62,103,10,0, 
  /* [46][0][][] */ 15,127,-16,106,2,126,26,38, 
  /* [47][0][][] */ -11,37,13,-28,30,-34,127,68, 
};
const TfArray<4, int> tensor_dimension37 = { 4, { 48,1,1,8 } };
const TfArray<48, float> quant37_scale = { 48, { 0.0051422519609332085, 0.0073218895122408867, 0.0013704420998692513, 0.010086765512824059, 0.0057027931325137615, 0.0053780339658260345, 0.025899535045027733, 0.015061596408486366, 0.015853431075811386, 0.0068471762351691723, 0.001752065378241241, 0.0065871239639818668, 0.0058763464912772179, 0.013005622662603855, 0.0065834284760057926, 0.023911226540803909, 0.014768325723707676, 0.0037908782251179218, 0.014945318922400475, 0.023308968171477318, 0.0092389201745390892, 0.0059905326925218105, 0.0018895416287705302, 0.0057750348933041096, 0.015639597550034523, 0.010021000169217587, 0.012541873380541801, 0.0052055204287171364, 0.013605683110654354, 0.0087625933811068535, 0.0035481355153024197, 0.006447074469178915, 0.0099152559414505959, 0.0033758741337805986, 0.0064921574667096138, 0.0046345512382686138, 0.006517983041703701, 0.021905923262238503, 0.0070292297750711441, 0.0075483466498553753, 0.01592671312391758, 0.0078751109540462494, 0.0095478864386677742, 0.0024467906914651394, 0.018126696348190308, 0.010202959179878235, 0.0091863535344600677, 0.0056754336692392826, } };
const TfArray<48, int> quant37_zero = { 48, { 0,0,0,0,0,0,0,0,0,0,0,0,0,0,0,0,0,0,0,0,0,0,0,0,0,0,0,0,0,0,0,0,0,0,0,0,0,0,0,0,0,0,0,0,0,0,0,0 } };
const TfLiteAffineQuantization quant37 = { (TfLiteFloatArray*)&quant37_scale, (TfLiteIntArray*)&quant37_zero, 0 };
const ALIGN(16) int32_t tensor_data38[8] = { 4223, -4544, -66, 2928, 2814, 453, -2678, 2255, };
const TfArray<1, int> tensor_dimension38 = { 1, { 8 } };
const TfArray<8, float> quant38_scale = { 8, { 7.069432467687875e-05, 0.00017247888899873942, 9.5304982096422464e-05, 7.1610207669436932e-05, 0.00012203312508063391, 0.00017129899060819298, 9.6825751825235784e-05, 0.00017822791414801031, } };
const TfArray<8, int> quant38_zero = { 8, { 0,0,0,0,0,0,0,0 } };
const TfLiteAffineQuantization quant38 = { (TfLiteFloatArray*)&quant38_scale, (TfLiteIntArray*)&quant38_zero, 0 };
const ALIGN(16) int8_t tensor_data39[8*1*1*8] = { 
  /* [0][0][][] */ -22,-4,-47,-32,-18,39,-127,-8, 
  /* [1][0][][] */ 20,92,1,127,10,-6,-8,-35, 
  /* [2][0][][] */ 127,-6,-37,-57,-66,48,93,-52, 
  /* [3][0][][] */ 10,-127,45,-83,16,-88,29,60, 
  /* [4][0][][] */ 122,-3,-58,-9,28,-6,-127,-49, 
  /* [5][0][][] */ 2,-33,3,38,2,-127,-1,9, 
  /* [6][0][][] */ 127,-27,117,-1,107,-28,-2,8, 
  /* [7][0][][] */ -127,-3,-91,-2,-99,6,35,6, 
};
const TfArray<4, int> tensor_dimension39 = { 4, { 8,1,1,8 } };
const TfArray<8, float> quant39_scale = { 8, { 0.0030045087914913893, 0.0073303529061377048, 0.0040504615753889084, 0.0030434336513280869, 0.0051864078268408775, 0.0072802072390913963, 0.004115094430744648, 0.0075746863149106503, } };
const TfArray<8, int> quant39_zero = { 8, { 0,0,0,0,0,0,0,0 } };
const TfLiteAffineQuantization quant39 = { (TfLiteFloatArray*)&quant39_scale, (TfLiteIntArray*)&quant39_zero, 0 };
const ALIGN(16) int32_t tensor_data40[8] = { -10537, 10565, 632, -13062, -388, -14162, 249, 169, };
const TfArray<1, int> tensor_dimension40 = { 1, { 8 } };
const TfArray<8, float> quant40_scale = { 8, { 0.00032034306786954403, 0.00039059648406691849, 0.0002082762512145564, 0.00035808942629955709, 0.00040920241735875607, 0.00032494845800101757, 0.0010557749774307013, 0.0021461010910570621, } };
const TfArray<8, int> quant40_zero = { 8, { 0,0,0,0,0,0,0,0 } };
const TfLiteAffineQuantization quant40 = { (TfLiteFloatArray*)&quant40_scale, (TfLiteIntArray*)&quant40_zero, 0 };
const ALIGN(16) int8_t tensor_data41[1*3*3*8] = { 
  /* [0][0][][] */ -1,2,16,18,9,1,9,29, 6,1,-36,127,-25,1,-4,28, -5,0,-9,19,0,2,-6,20, 
  /* [0][1][][] */ -4,0,127,-22,127,-1,-111,39, 127,-127,-100,6,-96,127,-14,-127, -29,4,15,-19,1,1,127,37, 
  /* [0][2][][] */ 2,2,12,5,7,1,16,31, 4,4,-42,-1,-18,4,-9,-104, -5,1,-9,2,-1,0,-6,35, 
};
const TfArray<4, int> tensor_dimension41 = { 4, { 1,3,3,8 } };
const TfArray<8, float> quant41_scale = { 8, { 0.013614580035209656, 0.016600349918007851, 0.0088517405092716217, 0.015218799933791161, 0.017391102388501167, 0.013810309581458569, 0.044870436191558838, 0.091209292411804199, } };
const TfArray<8, int> quant41_zero = { 8, { 0,0,0,0,0,0,0,0 } };
const TfLiteAffineQuantization quant41 = { (TfLiteFloatArray*)&quant41_scale, (TfLiteIntArray*)&quant41_zero, 3 };
const ALIGN(16) int32_t tensor_data42[8] = { 14748, 8509, -1003, 39611, 4186, 10799, 104904, 5928, };
const TfArray<1, int> tensor_dimension42 = { 1, { 8 } };
const TfArray<8, float> quant42_scale = { 8, { 0.00017489088349975646, 0.00022585925762541592, 0.00010181767720496282, 6.6615495597943664e-05, 0.00016185456479433924, 0.00021498353453353047, 1.1342106517986394e-05, 3.7399124266812578e-05, } };
const TfArray<8, int> quant42_zero = { 8, { 0,0,0,0,0,0,0,0 } };
const TfLiteAffineQuantization quant42 = { (TfLiteFloatArray*)&quant42_scale, (TfLiteIntArray*)&quant42_zero, 0 };
const ALIGN(16) int8_t tensor_data43[8*3*3*1] = { 
  /* [0][0][][] */ -57, 50, 8, 
  /* [0][1][][] */ -127, 121, -1, 
  /* [0][2][][] */ -42, 46, -1, 
  /* [1][0][][] */ 58, 127, 36, 
  /* [1][1][][] */ -67, -78, -43, 
  /* [1][2][][] */ 8, -40, 6, 
  /* [2][0][][] */ 31, 28, -46, 
  /* [2][1][][] */ 52, 70, -127, 
  /* [2][2][][] */ 21, 32, -59, 
  /* [3][0][][] */ 41, 52, 20, 
  /* [3][1][][] */ 52, 73, 26, 
  /* [3][2][][] */ -81, -127, -57, 
  /* [4][0][][] */ 5, -53, 48, 
  /* [4][1][][] */ 16, -127, 112, 
  /* [4][2][][] */ 5, -37, 32, 
  /* [5][0][][] */ 2, -56, 0, 
  /* [5][1][][] */ 0, 127, 2, 
  /* [5][2][][] */ 1, -75, 0, 
  /* [6][0][][] */ -16, -85, 1, 
  /* [6][1][][] */ -23, -127, -5, 
  /* [6][2][][] */ -16, -57, 5, 
  /* [7][0][][] */ 44, -127, 31, 
  /* [7][1][][] */ -20, -3, -12, 
  /* [7][2][][] */ -25, 76, -12, 
};
const TfArray<4, int> tensor_dimension43 = { 4, { 8,3,3,1 } };
const TfArray<8, float> quant43_scale = { 8, { 0.056387461721897125, 0.072820432484149933, 0.032827556133270264, 0.021477842703461647, 0.052184354513883591, 0.069313935935497284, 0.0036568664945662022, 0.012058041989803314, } };
const TfArray<8, int> quant43_zero = { 8, { 0,0,0,0,0,0,0,0 } };
const TfLiteAffineQuantization quant43 = { (TfLiteFloatArray*)&quant43_scale, (TfLiteIntArray*)&quant43_zero, 0 };
const TfArray<4, int> tensor_dimension44 = { 4, { 1,24,24,8 } };
const TfArray<1, float> quant44_scale = { 1, { 0.023529412224888802, } };
const TfArray<1, int> quant44_zero = { 1, { -128 } };
const TfLiteAffineQuantization quant44 = { (TfLiteFloatArray*)&quant44_scale, (TfLiteIntArray*)&quant44_zero, 0 };
const TfArray<4, int> tensor_dimension45 = { 4, { 1,24,24,8 } };
const TfArray<1, float> quant45_scale = { 1, { 0.023529412224888802, } };
const TfArray<1, int> quant45_zero = { 1, { -128 } };
const TfLiteAffineQuantization quant45 = { (TfLiteFloatArray*)&quant45_scale, (TfLiteIntArray*)&quant45_zero, 0 };
const TfArray<4, int> tensor_dimension46 = { 4, { 1,24,24,8 } };
const TfArray<1, float> quant46_scale = { 1, { 0.060680016875267029, } };
const TfArray<1, int> quant46_zero = { 1, { 35 } };
const TfLiteAffineQuantization quant46 = { (TfLiteFloatArray*)&quant46_scale, (TfLiteIntArray*)&quant46_zero, 0 };
const TfArray<4, int> tensor_dimension47 = { 4, { 1,24,24,8 } };
const TfArray<1, float> quant47_scale = { 1, { 0.068464964628219604, } };
const TfArray<1, int> quant47_zero = { 1, { 16 } };
const TfLiteAffineQuantization quant47 = { (TfLiteFloatArray*)&quant47_scale, (TfLiteIntArray*)&quant47_zero, 0 };
const TfArray<4, int> tensor_dimension48 = { 4, { 1,24,24,48 } };
const TfArray<1, float> quant48_scale = { 1, { 0.023529412224888802, } };
const TfArray<1, int> quant48_zero = { 1, { -128 } };
const TfLiteAffineQuantization quant48 = { (TfLiteFloatArray*)&quant48_scale, (TfLiteIntArray*)&quant48_zero, 0 };
const TfArray<4, int> tensor_dimension49 = { 4, { 1,25,25,48 } };
const TfArray<1, float> quant49_scale = { 1, { 0.023529412224888802, } };
const TfArray<1, int> quant49_zero = { 1, { -128 } };
const TfLiteAffineQuantization quant49 = { (TfLiteFloatArray*)&quant49_scale, (TfLiteIntArray*)&quant49_zero, 0 };
const TfArray<4, int> tensor_dimension50 = { 4, { 1,12,12,48 } };
const TfArray<1, float> quant50_scale = { 1, { 0.023529412224888802, } };
const TfArray<1, int> quant50_zero = { 1, { -128 } };
const TfLiteAffineQuantization quant50 = { (TfLiteFloatArray*)&quant50_scale, (TfLiteIntArray*)&quant50_zero, 0 };
const TfArray<4, int> tensor_dimension51 = { 4, { 1,12,12,8 } };
const TfArray<1, float> quant51_scale = { 1, { 0.038233544677495956, } };
const TfArray<1, int> quant51_zero = { 1, { 7 } };
const TfLiteAffineQuantization quant51 = { (TfLiteFloatArray*)&quant51_scale, (TfLiteIntArray*)&quant51_zero, 0 };
const TfArray<4, int> tensor_dimension52 = { 4, { 1,12,12,48 } };
const TfArray<1, float> quant52_scale = { 1, { 0.023529412224888802, } };
const TfArray<1, int> quant52_zero = { 1, { -128 } };
const TfLiteAffineQuantization quant52 = { (TfLiteFloatArray*)&quant52_scale, (TfLiteIntArray*)&quant52_zero, 0 };
const TfArray<4, int> tensor_dimension53 = { 4, { 1,12,12,48 } };
const TfArray<1, float> quant53_scale = { 1, { 0.023529412224888802, } };
const TfArray<1, int> quant53_zero = { 1, { -128 } };
const TfLiteAffineQuantization quant53 = { (TfLiteFloatArray*)&quant53_scale, (TfLiteIntArray*)&quant53_zero, 0 };
const TfArray<4, int> tensor_dimension54 = { 4, { 1,12,12,8 } };
const TfArray<1, float> quant54_scale = { 1, { 0.069137841463088989, } };
const TfArray<1, int> quant54_zero = { 1, { -5 } };
const TfLiteAffineQuantization quant54 = { (TfLiteFloatArray*)&quant54_scale, (TfLiteIntArray*)&quant54_zero, 0 };
const TfArray<4, int> tensor_dimension55 = { 4, { 1,12,12,8 } };
const TfArray<1, float> quant55_scale = { 1, { 0.068077549338340759, } };
const TfArray<1, int> quant55_zero = { 1, { -6 } };
const TfLiteAffineQuantization quant55 = { (TfLiteFloatArray*)&quant55_scale, (TfLiteIntArray*)&quant55_zero, 0 };
const TfArray<4, int> tensor_dimension56 = { 4, { 1,12,12,48 } };
const TfArray<1, float> quant56_scale = { 1, { 0.020586814731359482, } };
const TfArray<1, int> quant56_zero = { 1, { -128 } };
const TfLiteAffineQuantization quant56 = { (TfLiteFloatArray*)&quant56_scale, (TfLiteIntArray*)&quant56_zero, 0 };
const TfArray<4, int> tensor_dimension57 = { 4, { 1,13,13,48 } };
const TfArray<1, float> quant57_scale = { 1, { 0.020586814731359482, } };
const TfArray<1, int> quant57_zero = { 1, { -128 } };
const TfLiteAffineQuantization quant57 = { (TfLiteFloatArray*)&quant57_scale, (TfLiteIntArray*)&quant57_zero, 0 };
const TfArray<4, int> tensor_dimension58 = { 4, { 1,6,6,48 } };
const TfArray<1, float> quant58_scale = { 1, { 0.019185222685337067, } };
const TfArray<1, int> quant58_zero = { 1, { -128 } };
const TfLiteAffineQuantization quant58 = { (TfLiteFloatArray*)&quant58_scale, (TfLiteIntArray*)&quant58_zero, 0 };
const TfArray<4, int> tensor_dimension59 = { 4, { 1,6,6,8 } };
const TfArray<1, float> quant59_scale = { 1, { 0.036224745213985443, } };
const TfArray<1, int> quant59_zero = { 1, { 13 } };
const TfLiteAffineQuantization quant59 = { (TfLiteFloatArray*)&quant59_scale, (TfLiteIntArray*)&quant59_zero, 0 };
const TfArray<4, int> tensor_dimension60 = { 4, { 1,6,6,48 } };
const TfArray<1, float> quant60_scale = { 1, { 0.015407059341669083, } };
const TfArray<1, int> quant60_zero = { 1, { -128 } };
const TfLiteAffineQuantization quant60 = { (TfLiteFloatArray*)&quant60_scale, (TfLiteIntArray*)&quant60_zero, 0 };
const TfArray<4, int> tensor_dimension61 = { 4, { 1,6,6,48 } };
const TfArray<1, float> quant61_scale = { 1, { 0.01857287809252739, } };
const TfArray<1, int> quant61_zero = { 1, { -128 } };
const TfLiteAffineQuantization quant61 = { (TfLiteFloatArray*)&quant61_scale, (TfLiteIntArray*)&quant61_zero, 0 };
const TfArray<4, int> tensor_dimension62 = { 4, { 1,6,6,8 } };
const TfArray<1, float> quant62_scale = { 1, { 0.029804626479744911, } };
const TfArray<1, int> quant62_zero = { 1, { -20 } };
const TfLiteAffineQuantization quant62 = { (TfLiteFloatArray*)&quant62_scale, (TfLiteIntArray*)&quant62_zero, 0 };
const TfArray<4, int> tensor_dimension63 = { 4, { 1,6,6,8 } };
const TfArray<1, float> quant63_scale = { 1, { 0.045111682265996933, } };
const TfArray<1, int> quant63_zero = { 1, { -3 } };
const TfLiteAffineQuantization quant63 = { (TfLiteFloatArray*)&quant63_scale, (TfLiteIntArray*)&quant63_zero, 0 };
const TfArray<4, int> tensor_dimension64 = { 4, { 1,6,6,48 } };
const TfArray<1, float> quant64_scale = { 1, { 0.012724274769425392, } };
const TfArray<1, int> quant64_zero = { 1, { -128 } };
const TfLiteAffineQuantization quant64 = { (TfLiteFloatArray*)&quant64_scale, (TfLiteIntArray*)&quant64_zero, 0 };
const TfArray<4, int> tensor_dimension65 = { 4, { 1,6,6,48 } };
const TfArray<1, float> quant65_scale = { 1, { 0.012785807251930237, } };
const TfArray<1, int> quant65_zero = { 1, { -128 } };
const TfLiteAffineQuantization quant65 = { (TfLiteFloatArray*)&quant65_scale, (TfLiteIntArray*)&quant65_zero, 0 };
const TfArray<4, int> tensor_dimension66 = { 4, { 1,6,6,8 } };
const TfArray<1, float> quant66_scale = { 1, { 0.038531556725502014, } };
const TfArray<1, int> quant66_zero = { 1, { -13 } };
const TfLiteAffineQuantization quant66 = { (TfLiteFloatArray*)&quant66_scale, (TfLiteIntArray*)&quant66_zero, 0 };
const TfArray<4, int> tensor_dimension67 = { 4, { 1,6,6,8 } };
const TfArray<1, float> quant67_scale = { 1, { 0.056350596249103546, } };
const TfArray<1, int> quant67_zero = { 1, { -23 } };
const TfLiteAffineQuantization quant67 = { (TfLiteFloatArray*)&quant67_scale, (TfLiteIntArray*)&quant67_zero, 0 };
const TfArray<4, int> tensor_dimension68 = { 4, { 1,6,6,48 } };
const TfArray<1, float> quant68_scale = { 1, { 0.01502528227865696, } };
const TfArray<1, int> quant68_zero = { 1, { -128 } };
const TfLiteAffineQuantization quant68 = { (TfLiteFloatArray*)&quant68_scale, (TfLiteIntArray*)&quant68_zero, 0 };
const TfArray<4, int> tensor_dimension69 = { 4, { 1,6,6,32 } };
const TfArray<1, float> quant69_scale = { 1, { 0.020923497155308723, } };
const TfArray<1, int> quant69_zero = { 1, { -128 } };
const TfLiteAffineQuantization quant69 = { (TfLiteFloatArray*)&quant69_scale, (TfLiteIntArray*)&quant69_zero, 0 };
const TfArray<4, int> tensor_dimension70 = { 4, { 1,6,6,2 } };
const TfArray<1, float> quant70_scale = { 1, { 0.028586547821760178, } };
const TfArray<1, int> quant70_zero = { 1, { -50 } };
